tree
version=v4
num_class=1
num_tree_per_iteration=1
label_index=0
max_feature_idx=153
objective=binary sigmoid:1
feature_names=numero_de_cliente foto_mes active_quarter cliente_vip internet cliente_edad cliente_antiguedad mrentabilidad mrentabilidad_annual mcomisiones mactivos_margen mpasivos_margen cproductos tcuentas ccuenta_corriente mcuenta_corriente_adicional mcuenta_corriente ccaja_ahorro mcaja_ahorro mcaja_ahorro_adicional mcaja_ahorro_dolares cdescubierto_preacordado mcuentas_saldo ctarjeta_debito ctarjeta_debito_transacciones mautoservicio ctarjeta_visa ctarjeta_visa_transacciones mtarjeta_visa_consumo ctarjeta_master ctarjeta_master_transacciones mtarjeta_master_consumo cprestamos_personales mprestamos_personales cprestamos_prendarios mprestamos_prendarios cprestamos_hipotecarios mprestamos_hipotecarios cplazo_fijo mplazo_fijo_dolares mplazo_fijo_pesos cinversion1 minversion1_pesos minversion1_dolares cinversion2 minversion2 cseguro_vida cseguro_auto cseguro_vivienda cseguro_accidentes_personales ccaja_seguridad cpayroll_trx mpayroll mpayroll2 cpayroll2_trx ccuenta_debitos_automaticos mcuenta_debitos_automaticos ctarjeta_visa_debitos_automaticos mttarjeta_visa_debitos_automaticos ctarjeta_master_debitos_automaticos mttarjeta_master_debitos_automaticos cpagodeservicios mpagodeservicios cpagomiscuentas mpagomiscuentas ccajeros_propios_descuentos mcajeros_propios_descuentos ctarjeta_visa_descuentos mtarjeta_visa_descuentos ctarjeta_master_descuentos mtarjeta_master_descuentos ccomisiones_mantenimiento mcomisiones_mantenimiento ccomisiones_otras mcomisiones_otras cforex cforex_buy mforex_buy cforex_sell mforex_sell ctransferencias_recibidas mtransferencias_recibidas ctransferencias_emitidas mtransferencias_emitidas cextraccion_autoservicio mextraccion_autoservicio ccheques_depositados mcheques_depositados ccheques_emitidos mcheques_emitidos ccheques_depositados_rechazados mcheques_depositados_rechazados ccheques_emitidos_rechazados mcheques_emitidos_rechazados tcallcenter ccallcenter_transacciones thomebanking chomebanking_transacciones ccajas_transacciones ccajas_consultas ccajas_depositos ccajas_extracciones ccajas_otras catm_trx matm catm_trx_other matm_other ctrx_quarter tmobile_app cmobile_app_trx Master_delinquency Master_status Master_mfinanciacion_limite Master_Fvencimiento Master_Finiciomora Master_msaldototal Master_msaldopesos Master_msaldodolares Master_mconsumospesos Master_mconsumosdolares Master_mlimitecompra Master_madelantopesos Master_madelantodolares Master_fultimo_cierre Master_mpagado Master_mpagospesos Master_mpagosdolares Master_fechaalta Master_mconsumototal Master_cconsumos Master_cadelantosefectivo Master_mpagominimo Visa_delinquency Visa_status Visa_mfinanciacion_limite Visa_Fvencimiento Visa_Finiciomora Visa_msaldototal Visa_msaldopesos Visa_msaldodolares Visa_mconsumospesos Visa_mconsumosdolares Visa_mlimitecompra Visa_madelantopesos Visa_madelantodolares Visa_fultimo_cierre Visa_mpagado Visa_mpagospesos Visa_mpagosdolares Visa_fechaalta Visa_mconsumototal Visa_cconsumos Visa_cadelantosefectivo Visa_mpagominimo
feature_infos=[249221323:1592903498] [202103:202104] [0:1] [0:1] [0:3] [18:99] [1:376] [-389204.89000000001:897381.34999999998] [-1172112.05:3564143.9900000002] [-60464.800000000003:567036.20999999996] [-344865.76000000001:396059.15999999997] [-38377.940000000002:760795.05000000005] [3:17] [1:2] [1:3] none [-2519884.7799999998:11422023.58] [2:10] [-22267.27:54829104.079999998] [-17279.18:2149022.6099999999] [-19205.91:142724206.71000001] [0:1] [-2561615.71:143355449.65000001] [0:114] [0:161] [0:817883.63] [0:3] [0:344] [0:2032684.48] [0:3] [0:281] [0:2388713.5499999998] [0:629] [0:4257674.1600000001] [0:23] [0:17204182.640000001] [0:20] [0:21650989.489999998] [0:111] [0:65278159.340000004] [0:54870007.5] [0:16] [0:180376921.74000001] [0:59852711.590000004] [0:55] [0:251936300.05000001] [0:3] [0:5] [0:7] [0:2] [0:6] [0:94] [0:55481104.130000003] none none [0:104] [0:2773318.8300000001] [0:82] [0:583526.14000000001] [0:23] [0:490443.17999999999] [0:27] [0:8304840] [0:98] [0:178854852.13999999] [0:26] [0:17921.049999999999] [0:18] [0:79578.979999999996] [0:22] [0:100743.7] [0:30] [-15494.48:12060.629999999999] [0:603] [-60464.800000000003:567036.20999999996] [0:12] [0:12] [0:17595] [0:8] [0:3934.2399999999998] [0:589] [0:334324549.49000001] [0:253] [0:55325031.789999999] [0:155] [0:1736040] [0:225] [0:30694717.690000001] [0:209] [0:29810116.309999999] none none none none [0:1] [0:70] [0:1] [0:3094] [0:1] [0:35] [0:18] [0:16] [0:32] [0:155] [0:1736040] [0:81] [0:547045.18999999994] [0:2877] [0:1] [0:1] [0:1] [0:9] [0:440632288.80000001] [-2914178:5115] [2:199] [-761911.82999999996:10876293.48] [-542286.71999999997:10876293.48] [-761894.03000000003:2382668.6800000002] [-100636.03:2361900.54] [0:25595.639999999999] [985.32000000000005:9212742] [0:18768] [0:0] [1:1771] [0:879750] [-1927184.6899999999:38066.550000000003] [0:18591.740000000002] [1:7632] [-100636.03:2361900.54] [0:144] [0:14] [0:7701284.5800000001] [0:1] [0:9] [0:232279547.94] [-2914178:5084] [1:200] [-802498.37:4445088.8899999997] [-460907.65999999997:5212770.5099999998] [-736873.47999999998:1106793.5900000001] [-61868.209999999999:2026644.3999999999] [0:11837.360000000001] [1011.71:9212742] [0:67473.050000000003] [0:236.34999999999999] [1:156] [0:1252842.03] [-2268723.1400000001:154110.69] [0:11611.719999999999] [1:12608] [-61868.209999999999:2026644.3999999999] [0:208] [0:19] [0:3814220.6400000001]
tree_sizes=9556 9787 9794 9765 9835 9835 9881 9852 9879 9823 9819 9837 9857 9832 9860 9872 9811 9877 9813 9872 9851 9798 9838 9863 9856 9869 9884 9841 9863 9846 9866 9848 9858 9850 9893 9923 9842 9858 9828 9835 9833 9856 9825 9860 9828 9812 9818 9835 9841 9805 9880 9847 9862 9916 9810 9832 9834 9838 9867 9865 9841 9869 9806 9822 9772 9841 9868 9849 9872 9794 9863 9857 9789 9887 9827 9833 9831 9867 9810 9850 9840 9799 9845 9864 9895 9830 9834 9894 9881 9848 9896 9869 9926 9809 9855 9839 9871 9855 9846 9893

Tree=0
num_leaves=90
num_cat=0
split_feature=107 22 33 29 16 107 11 113 33 7 8 8 11 33 52 52 28 10 28 8 107 52 11 52 96 18 116 11 138 8 74 107 10 10 33 22 16 11 115 10 5 7 22 112 7 7 134 11 97 111 81 22 94 97 134 28 10 18 135 11 5 22 11 81 71 27 134 8 7 131 74 149 98 118 22 11 131 16 107 64 74 7 8 57 23 33 17 28 11
split_gain=12425.5 6125.33 4985.37 3704.61 2166.35 1397.9 647.581 445.831 372.392 442.379 481.417 368.807 355.629 449.313 361.827 333.113 320.745 236.822 179.099 168.197 165.566 159.421 134.923 118.851 117.618 100.719 98.6369 97.4404 91.9138 90.7082 90.4958 80.8451 74.5646 136.046 68.1596 82.1931 88.1184 65.9798 65.3674 64.7325 58.7573 50.5264 50.1006 44.0399 41.4502 40.8029 39.854 38.1354 31.4366 28.7388 33.3537 27.6262 26.9444 24.7424 24.0705 23.8127 22.9746 19.4522 18.7012 18.1328 17.8476 16.4319 15.1767 17.3322 13.7846 12.0057 11.9093 11.7482 12.4511 20.0126 11.445 8.86007 8.74298 7.96384 13.2749 7.72321 7.67619 7.23507 6.80369 12.6219 14.0616 6.54598 16.3005 9.67972 6.46613 6.12515 5.7998 5.72406 7.02262
threshold=17.500000000000004 -1807.7399999999998 5292.4800000000005 1.0000000180025095e-35 -13306.239999999998 44.500000000000007 112.28500000000001 -1339.4999999999998 18741.010000000006 1424.9250000000004 10189.250000000002 12558.030000000001 165.51500000000001 21358.765000000003 1.0000000180025095e-35 4699.1550000000016 1847.8500000000001 1.2550000000000001 1847.8500000000001 10189.250000000002 5.5000000000000009 2367.1250000000005 598.49500000000012 5865.5850000000009 1.0000000180025095e-35 587.44000000000017 4753.1450000000013 44.535000000000004 6219.8900000000012 18412.480000000003 1397.6850000000002 29.500000000000004 -189.08499999999995 -6.0099999999999989 4896.7850000000008 837.69500000000005 -224.86999999999998 246.01500000000001 1333.1800000000001 -265.32999999999993 55.500000000000007 202.215 -1412.3849999999998 139352.40000000002 3120.9150000000004 1075.325 213955.20000000004 235.00500000000002 17.500000000000004 8.0000000000000018 43401.750000000007 -4095.5649999999996 1.0000000180025095e-35 75.500000000000014 213955.20000000004 2952.3550000000005 -349.40999999999991 969.73500000000013 -1140.9999999999998 393.09500000000008 44.500000000000007 74417.820000000022 2354.1550000000002 2345.3650000000002 1.0000000180025095e-35 1.0000000180025095e-35 106977.60000000002 19174.985000000004 2365.4150000000004 920.80500000000018 504.61500000000007 2137.5000000000005 1.0000000180025095e-35 140.88500000000002 30080.025000000005 170.94500000000002 1085.0250000000003 -206.51499999999996 72.500000000000014 4251.8450000000003 1743.4550000000002 128.66500000000005 5528.1000000000013 2.5000000000000004 1.5000000000000002 15397.905000000001 2.5000000000000004 5967.7050000000008 218.45500000000001
decision_type=2 2 2 2 2 2 2 10 2 2 2 2 2 2 2 2 2 2 2 2 2 2 2 2 2 2 8 2 10 2 2 2 2 2 2 2 2 2 8 2 2 2 2 10 2 2 8 2 2 8 2 2 2 2 8 2 2 2 10 2 2 2 2 2 2 2 8 2 2 8 2 8 2 10 2 2 8 2 2 2 2 2 2 2 2 2 2 2 2
left_child=1 2 3 4 -1 6 8 20 9 23 -11 -9 13 14 17 16 19 32 42 30 -5 25 29 28 -19 31 59 -21 41 34 48 -8 -3 -34 35 36 45 46 -38 52 54 -2 -12 -33 -4 70 56 -41 -7 62 -51 -47 77 55 -35 60 -27 -30 -20 -14 -39 67 63 -29 -10 72 -66 68 -24 -70 -18 -62 86 74 -65 -58 85 -37 -79 80 -80 -57 -83 -84 -25 87 -17 -31 -89
right_child=5 12 44 7 -6 15 21 11 64 10 18 -13 26 -15 -16 65 22 24 58 27 -22 -23 61 84 -26 37 -28 49 57 76 -32 43 33 40 -36 39 38 53 -40 47 -42 -43 -44 -45 -46 51 -48 -49 -50 50 -52 -53 -54 -55 -56 81 75 -59 -60 -61 71 -63 -64 73 66 -67 -68 -69 69 -71 -72 -73 -74 -75 -76 -77 -78 78 79 -81 -82 82 83 -85 -86 -87 -88 88 -90
leaf_value=2.7895240083772563 -3.3543243392867441 -3.9967216293222543 -3.875022628009912 -2.2262867565430176 -0.70416063425041386 -4.1806875747279335 -3.6256157042546473 -0.9234733822406227 -4.53111869611421 -2.329833296035011 -2.9825477581850093 -2.3969686190565103 -4.1813815987138678 -4.4497996513676732 -4.4020557914855445 -4.5214738585096566 -4.2089640672162121 -3.1741794344421583 -4.1930629269107351 -3.7198957955471403 -3.2894666129407741 -4.5162759444449305 -4.4620995401238792 -4.2781211898278411 -2.3637738250719362 -4.4406732884268063 -3.6933320883198295 -4.1388812106086377 -3.9545457181877643 -4.2922052826436108 -3.2848244734584608 -4.3846561450511867 -2.8623577364867341 -3.6346141507303473 -4.5104140824179959 -4.5200709665779701 -3.5587866924779394 -4.0321206831529146 -4.1780009708781396 -3.9103279631899523 -4.0024698347156082 -3.912443345422699 -3.5544071986960817 -3.8791656967019277 -4.3671847436090037 -4.2440205601130545 -3.8734757832677325 -4.3058688752852357 -3.7352325453032229 -3.8867021126076873 -4.3734786570176256 -3.8267561315661078 -4.1802898439952987 -4.0660480415146356 -3.2286072427074761 -4.53695349747652 -3.9833439531640762 -4.2930612983362249 -3.8302308493872355 -4.4328633559463553 -4.4660570725690105 -4.5287613956863062 -4.5481403648366321 -4.1825064369087572 -4.4432256898647697 -4.5507995420309939 -4.1649109223333998 -4.509249983071296 -4.2129890947389645 -4.5405567581243469 -4.4260866328927229 -4.2365690984151909 -4.3537685444546845 -4.5414707598309594 -4.4645963157935631 -4.2216818617293184 -4.5353190090718094 -4.496745963801362 -4.3997426254887309 -4.4816038849320021 -4.1262872053536945 -4.178943950029204 -4.4934867266453304 -4.320863318921714 -4.4876459462277785 -4.523083399978205 -4.3877643203171823 -4.3469949225990279 -4.4818464296613634
leaf_weight=9.8767274264246243 13.522003384307029 9.5442191464826447 9.4703284176066536 9.2856015954166669 15.849561343900858 11.736310769803827 15.467792578041552 12.425957572646441 13.127919496968387 13.288016076199709 11.625474676489828 10.960458116605876 15.677149643190203 18.595833433791995 11.773256134241818 176.09392203297466 12.155024900101123 14.704255046322942 10.110714734531941 9.9259879123419505 10.935827873647211 90.319100929424167 158.06458418723196 9.8767274264246243 10.541743986308575 10.923512752167882 10.049139127135275 11.009718602523206 13.164864861406388 9.7043157257139665 9.2979167168959957 13.78062093537301 10.911197630688546 10.812676658853894 49.211225431412458 33.016840686090291 13.694415085017681 9.4826435390859825 10.196920584887266 15.406216970644889 9.6427401183173043 9.4456981746479851 9.5811645109206456 10.344702042639254 15.418532092124222 11.157500060275199 17.278115435503423 18.263325153850019 10.110714734531937 9.3594923242926615 9.9629332767799479 10.615634715184568 14.65499456040561 9.3841225672513229 9.3225469598546606 16.551523268222809 9.3225469598546642 10.430907892994581 9.3964376887306553 26.354359965771437 9.9259879123419541 399.81041882652789 16.551523268222809 9.8274669405072945 9.5688493894413131 1780.4463727530092 11.73631076980382 170.08414275106043 18.177119303494695 9.8644123049452883 26.403620451688766 13.768305813893674 12.610684394836424 10.369332285597919 13.682099963538347 9.3225469598546606 61.69875861145556 23.669663483276963 16.243645231239501 21.44062649551779 10.689525444060562 9.248656230978666 39.371443369425833 15.529368185438214 10.332386921159921 30.652337362058461 11.871777106076477 18.312585639767349 47.794986461289227
leaf_count=802 1098 775 769 754 1287 953 1256 1009 1066 1079 944 890 1273 1510 956 14299 987 1194 821 806 888 7334 12835 802 856 887 816 894 1069 788 755 1119 886 878 3996 2681 1112 770 828 1251 783 767 778 840 1252 906 1403 1483 821 760 809 862 1190 762 757 1344 757 847 763 2140 806 32465 1344 798 777 144574 953 13811 1476 801 2144 1118 1024 842 1111 757 5010 1922 1319 1741 868 751 3197 1261 839 2489 964 1487 3881
internal_value=-4.37183 -3.11346 -1.93196 -1.12501 0.63712 -4.45601 -4.15177 -2.16457 -3.84473 -3.69159 -3.29754 -1.61405 -3.81836 -3.62346 -3.44734 -4.49781 -4.42624 -3.29843 -3.61338 -4.13987 -2.80126 -4.31061 -4.45505 -4.01028 -2.83579 -4.22203 -4.21447 -4.26736 -3.84753 -4.37538 -3.76863 -3.95605 -3.53094 -3.42168 -4.31208 -4.271 -4.12404 -4.28394 -3.82307 -4.3517 -3.62663 -3.58386 -3.24091 -4.16791 -4.17991 -4.24322 -4.09689 -4.12488 -3.97453 -4.33465 -4.13769 -4.04058 -4.41549 -4.35503 -3.44663 -4.37885 -4.22744 -4.10419 -4.01829 -4.33906 -4.24679 -4.503 -4.39659 -4.34071 -4.38187 -4.54596 -4.28991 -4.47407 -4.44193 -4.32822 -4.35764 -4.33271 -4.50302 -4.4063 -4.34668 -4.10251 -4.48335 -4.4483 -4.4154 -4.3756 -4.29121 -4.43314 -4.40635 -4.44466 -4.38525 -4.45324 -4.51303 -4.425 -4.44449
internal_weight=4021.22 252.152 94.223 69.3341 25.7263 3769.07 455.228 43.6078 155.207 120.774 54.0018 23.3864 157.929 105.848 87.2526 3313.84 1332.82 75.4794 40.7138 121.833 20.2214 300.021 1210.98 66.7726 25.246 209.702 52.0806 90.6886 46.5635 454.982 31.1449 39.5931 50.2334 40.6892 286.819 237.608 84.2231 170.109 23.8913 153.385 29.778 22.9677 21.2066 24.1253 24.8889 60.3318 46.8467 33.6695 21.847 80.7626 19.3224 21.7731 119.715 123.262 20.1352 113.878 29.5686 23.5958 19.5072 42.0315 33.1769 756.001 61.4401 44.8886 34.4331 1981.02 21.3052 356.19 186.106 28.0415 38.5586 23.6943 200.576 33.8789 23.5096 18.6451 168.163 105.06 72.0435 48.3738 26.9332 80.701 64.1495 54.9008 20.2091 106.464 187.966 75.8119 66.1076
internal_count=326527 20475 7651 5630 2089 306052 36965 3541 12603 9807 4385 1899 12824 8595 7085 269087 108226 6129 3306 9893 1642 24362 98333 5422 2050 17028 4229 7364 3781 36945 2529 3215 4079 3304 23290 19294 6839 13813 1940 12455 2418 1865 1722 1959 2021 4899 3804 2734 1774 6558 1569 1768 9721 10009 1635 9247 2401 1916 1584 3413 2694 61388 4989 3645 2796 160861 1730 28923 15112 2277 3131 1924 16287 2751 1909 1514 13655 8531 5850 3928 2187 6553 5209 4458 1641 8645 15263 6156 5368
is_linear=0
shrinkage=1


Tree=1
num_leaves=90
num_cat=0
split_feature=51 137 16 29 94 11 8 16 11 96 10 12 133 115 95 22 81 153 12 97 109 72 72 9 140 125 73 127 135 28 6 8 7 99 138 22 10 33 135 138 18 28 127 125 5 153 113 5 18 16 135 120 8 28 8 25 7 9 6 116 11 6 10 8 9 5 17 16 58 18 23 109 33 72 6 12 85 20 16 22 120 135 18 58 134 113 52 134 113
split_gain=916.055 631.364 526.557 968.624 239.978 170.073 101.897 98.7792 89.4878 94.9483 75.1118 74.0923 71.4456 58.0582 56.2702 54.2555 54.1432 52.9472 49.5173 38.8271 40.9226 37.4755 34.0043 33.7621 56.9914 37.3047 30.9718 30.522 27.0485 30.8807 26.8937 23.0591 22.8526 22.2032 20.2317 26.9234 34.012 22.8422 24.0456 20.0476 17.0272 16.3858 15.8169 15.7804 30.1595 15.4748 14.6399 14.429 14.0739 17.4153 16.0241 13.7179 13.3709 13.3213 19.8635 13.3397 13.1747 20.1923 12.8062 12.7832 12.4672 12.9613 11.5533 11.1998 10.6085 9.71865 9.39793 9.08155 8.57692 8.52093 8.41607 8.04433 7.85099 7.62042 7.1105 6.95079 6.84766 6.84203 6.7859 6.47233 10.3134 6.45153 9.80996 7.88725 6.31864 5.9617 5.75372 5.30337 5.20162
threshold=1.0000000180025095e-35 8244.0350000000017 -13306.239999999998 1.0000000180025095e-35 1.0000000180025095e-35 598.49500000000012 6967.6800000000012 -29725.094999999998 405.45500000000004 1.0000000180025095e-35 -265.32999999999993 6.5000000000000009 1.0000000180025095e-35 539.85500000000013 2.5000000000000004 -203.53999999999996 1209.9400000000003 6774.0750000000007 7.5000000000000009 17.500000000000004 1.0000000180025095e-35 619.31500000000017 1774.0350000000001 1690.5150000000001 7714.7900000000009 -1.0000000180025095e-35 1.5000000000000002 384.50000000000006 -1658.9999999999998 1287.1850000000002 80.500000000000014 10359.730000000001 1648.7850000000001 1.0000000180025095e-35 19419.195000000003 -2193.0599999999999 -480.28999999999991 32007.655000000002 -1262.9999999999998 1.0000000180025095e-35 507.64000000000004 2598.2850000000003 617.50000000000011 -2948.4449999999997 44.500000000000007 439.87500000000006 -1125.4999999999998 68.500000000000014 11798.770000000002 -312.65499999999992 -988.99999999999989 154836.00000000003 24895.555000000004 984.33500000000015 37096.335000000006 1407.6400000000001 1856.9750000000001 1850.6550000000004 58.500000000000007 30429.720000000005 1908.2150000000004 45.500000000000007 10.565000000000003 11338.750000000002 338.82500000000005 44.500000000000007 3.5000000000000004 -3345.1699999999996 540.01500000000021 1285.9100000000001 1.5000000000000002 1.0000000180025095e-35 4896.7850000000008 3139.8100000000004 6.5000000000000009 8.5000000000000018 17594.120000000006 11.420000000000002 -77.924999999999997 183534.20500000005 182988.00000000003 -973.49999999999989 13807.42 2476.1000000000004 155187.90000000002 -957.99999999999989 225818.32000000004 213955.20000000004 -653.99999999999989
decision_type=2 8 2 2 2 2 2 2 2 2 2 2 8 8 2 2 2 10 2 2 2 2 2 2 10 8 2 10 10 2 2 2 2 2 10 2 2 2 8 10 2 2 8 8 2 10 10 2 2 2 8 10 2 2 2 2 2 2 2 8 2 2 2 2 2 2 2 2 2 2 2 2 2 2 2 2 2 2 2 2 10 10 2 2 10 10 2 8 10
left_child=1 4 3 7 8 6 14 -3 9 15 -6 -12 31 18 17 27 30 23 19 20 62 39 -22 26 69 -26 -4 67 -21 -30 -5 40 -29 34 35 59 -37 38 -38 66 -7 51 -19 84 -45 -23 53 -47 49 87 64 71 63 54 58 -55 -40 -58 -10 -8 61 -42 -11 -20 -51 -53 74 -1 -43 -25 85 -17 81 -63 -2 76 77 -48 -39 80 -79 88 83 -83 -15 -34 -76 -28 -36
right_child=21 2 5 16 10 12 33 -9 46 13 11 -13 -14 43 -16 41 -18 42 52 28 22 45 -24 24 25 -27 48 32 29 -31 -32 -33 70 -35 72 36 37 78 56 -41 60 68 -44 44 -46 47 75 -49 -50 50 -52 65 -54 55 -56 -57 57 -59 -60 -61 -62 73 -64 -65 -66 -67 -68 -69 -70 -71 -72 -73 -74 -75 86 -77 -78 79 -80 -81 -82 82 -84 -85 -86 -87 -88 -89 -90
leaf_value=-0.11814783003525811 0.019175173257664598 -0.73254161253615557 0.22170735160876437 0.00083243491987442225 0.11856931624587268 0.11622816332712699 0.017570519628083172 -1.2406089307688628 0.079456033958132624 0.1852819808543503 0.84329167410940187 0.37888578364166503 0.24035290056390737 -0.11434099454507526 0.3855049394132079 0.078658735663903925 -0.16603422228217155 0.11652996001150083 0.070675884643786685 0.22019426482206012 0.18693996234385643 0.10889598008615568 0.49748502369007913 0.14072793374964551 0.14807490801348586 0.54195571669424603 -0.072754805700068093 -0.029219258751770914 0.59609695718233302 0.31992587694362284 0.30521968083441109 -0.14642973126348796 0.16860968426188758 0.15435602809887042 -0.13266509058960801 -0.14146943202209045 -0.049740250821366121 0.032622341564509341 0.096535455653673344 -0.17738778570126862 0.10924983830163948 0.13160399371332163 -0.11381710449206915 0.27085931318201911 0.018552504031847609 -0.14770425830259509 -0.14946723116339392 0.11552728301278695 -0.10211500834673805 0.14123118461161205 0.21412184962020514 0.36319069206350046 -0.031207938747288461 0.079742616535527389 -0.077948908032952999 -0.11860254191243694 0.42555375896732095 0.14461835286315167 0.32563540210664771 -0.099640420050074258 -0.17052819475028488 -0.091618162055929916 0.03754177456571501 0.24852532446355893 -0.065940405898794963 0.19372045949651476 0.056400813454978042 -0.0093426718471174026 -0.063020383202542232 -0.017313772517396825 0.043734819235846115 0.21726643334349655 -0.15968604896650374 0.079798085475889985 -0.14165633767734112 -0.16419654039160281 0.064167836376216203 -0.091743832221031357 -0.17276729158345253 -0.11994741605496699 0.17532928411985282 0.11028279038137843 -0.16101148381407446 -0.047172268391264316 0.045903657854316278 0.081465630384424101 -0.0049088315830778098 0.028231627695149104 -0.038961213939497814
leaf_weight=50.46126932092011 10.742323672398923 22.542568235658109 35.498557562939823 22.49561523925513 17.021866763941944 15.622650535777209 43.516462338156998 31.385228297673166 16.548498835414652 40.968916269950569 20.054002299904823 28.539732424542308 19.164317095652223 17.960949702188373 20.364062486216426 35.666889443993568 41.340195346623659 12.366827982477842 28.773667988367379 27.471008196473122 24.669794863089919 20.490804537199438 23.704053795896471 27.708191988989711 13.639438471756874 20.839147443883121 26.756150145083666 74.332673577591777 25.282076707109809 30.781865868717432 17.846410333178937 429.0945459548384 54.542247558012605 19.405567932873964 64.334445112384856 27.620983785018325 19.88788930606097 10.073365040123464 33.075538264587522 1553.6944189053029 14.354851836338637 16.649101092480127 58.870339611545205 26.354936453513801 42.332582886330783 31.626736931502819 25.433429463766515 9.2206553546711785 23.297879241406918 16.230330445803702 33.083848767913878 20.674819710664451 20.752209694124758 19.148655086755753 14.433549036271868 29.587345906533301 14.700836070813237 21.746532157063484 12.885459633544086 119.50587605312467 44.191788734868169 106.21769681666046 32.576380730606616 20.998579773120582 17.731919935904443 26.435315743088722 9.8649201085790974 54.92754321731627 14.544866261072455 20.239178772084415 71.71396607067436 24.024524634703994 46.678545827046037 9.7036383571103197 216.24149436037987 23.660375353880227 14.711372314952312 9.648993397131564 12.187264557927845 13.715187912806867 10.194716418161986 18.37315795943141 13.907837284728883 26.840566454455256 15.908457685261963 53.134381582029164 11.08977418579161 53.433418960310519 29.680360419675708
leaf_count=717 918 840 1019 921 998 1098 1504 952 1061 1121 569 1372 982 917 1146 1425 3366 689 1008 1009 889 1186 670 630 911 1168 1408 1198 733 1316 807 39480 808 895 3992 2162 1311 754 1245 149287 1245 871 3724 944 1394 2611 1813 825 1782 945 1453 704 1036 1407 1052 2568 614 1240 815 1638 3999 9358 573 1007 1076 1028 783 855 792 1228 1001 1052 4119 852 19268 2009 1246 775 913 1186 805 1022 1151 1909 727 716 996 908 2010
internal_value=-0.0640786 0.00273416 -0.0694227 -0.419204 0.109612 -0.0386204 0.0131564 -1.02823 0.0884496 0.113442 0.453291 0.57054 -0.111749 0.183313 0.086075 0.0602365 -0.0171162 0.0691229 0.227518 0.273469 0.206842 -0.16474 0.339113 0.104426 0.204577 0.38614 0.0643592 0.0223172 0.370712 0.444465 0.135487 -0.122647 0.0571072 -0.0399817 -0.0474922 -0.017276 0.042502 0.0880058 0.129791 -0.169585 -0.068962 0.158916 -0.0738287 0.0643588 0.115361 -0.0224134 -0.0267505 -0.0882839 0.0316053 0.0527646 0.122408 0.193398 0.0936505 0.0259557 0.0999774 -0.0406716 0.181148 0.257932 0.187227 -0.0683526 -0.0855447 -0.056717 0.119841 0.145709 0.0330655 0.268094 -0.120691 -0.0614397 0.0408561 0.0740166 0.0928776 0.134445 -0.0932085 -0.0772691 -0.128029 -0.0768797 -0.0488493 -0.0770332 -0.0798245 -0.0221373 0.0454651 -0.072945 -0.0250198 0.0168115 -0.0390741 0.125607 -0.134985 -0.00546363 -0.103083
internal_weight=4669.75 2806.78 1675.55 135.61 1131.23 1539.94 901.595 53.9278 1065.61 875.643 65.6156 48.5937 638.349 378.535 380.059 497.108 81.6822 359.695 275.979 205.454 121.919 1862.97 48.3738 288.458 82.426 34.4786 206.032 359.112 83.535 56.0639 40.342 619.185 253.723 521.535 502.13 302.315 139.292 111.671 89.4108 1801.63 190.091 137.996 71.2372 102.557 68.6875 61.3382 189.968 40.8474 170.534 147.236 67.0461 106.802 70.5245 92.6035 43.8675 48.736 69.5229 36.4474 29.434 163.022 174.468 130.276 73.5453 49.7722 33.9623 47.1101 247.939 105.389 31.194 47.9474 179.391 59.6914 199.815 115.921 238.074 97.3641 73.7037 58.9923 22.2606 33.5589 19.8437 153.136 59.1216 45.2137 33.8694 107.677 227.331 80.1896 94.0148
internal_count=326527 150653 108466 6886 42187 101580 44566 1792 39248 24511 2939 1941 57014 13344 18087 11167 5094 16941 9362 6311 3253 175874 1559 12528 3937 2079 8591 5295 3058 2049 1728 56032 3723 26479 25584 11381 8239 6077 4410 171252 16552 5872 4413 3982 2338 4622 14737 3436 7572 5790 3474 4209 3051 6903 2928 3975 3099 1854 1876 3142 15454 11455 1694 2015 2021 1732 21965 1572 1663 1858 2525 2477 14203 10210 21182 7834 5825 4579 1667 2766 1580 10084 4082 2931 1644 1524 20264 2316 6002
is_linear=0
shrinkage=0.18516


Tree=2
num_leaves=90
num_cat=0
split_feature=51 137 22 110 22 50 95 131 10 16 33 18 112 133 22 18 72 5 4 109 97 27 97 74 138 20 4 96 127 33 72 18 135 0 7 12 97 97 127 22 72 127 80 18 107 7 115 94 107 16 113 107 16 5 137 0 151 10 81 149 98 22 149 96 120 127 28 149 127 16 149 25 10 6 107 10 153 147 74 72 72 138 5 135 107 145 6 120 22
split_gain=777.295 373.308 216.688 225.523 137.465 83.4302 81.7233 60.6062 53.7995 51.9523 52.4851 53.8531 49.4774 47.6994 40.5975 43.8188 36.1201 35.7465 33.4802 32.1785 29.8169 29.452 28.0314 26.4475 21.9076 21.4363 20.796 18.8547 18.4581 24.5363 21.3204 21.776 16.7376 16.2666 15.3749 15.3206 17.3196 14.7395 15.1552 14.6052 13.8612 13.745 16.1989 20.9375 13.5124 13.1761 12.8738 12.866 14.1616 12.3135 11.9085 14.5541 11.8607 11.808 14.329 13.0805 11.6819 11.3087 10.7944 10.6724 10.1422 10.0417 9.99983 11.3638 12.9347 9.42609 9.13276 8.98397 10.2621 12.9021 8.94225 9.47235 8.87587 8.74874 8.72894 8.61035 8.59316 8.48506 8.41515 10.2569 8.26765 7.98535 7.77722 7.40075 7.09509 9.10105 6.58251 8.09524 8.38319
threshold=1.0000000180025095e-35 8244.0350000000017 -14384.464999999998 inf 24742.125000000004 1.0000000180025095e-35 1.5000000000000002 428.14500000000004 -493.58499999999992 -301.47499999999997 24026.480000000003 3022.1600000000003 82344.60000000002 8.0000000000000018 74417.820000000022 1.0000000180025095e-35 619.31500000000017 44.500000000000007 1.5000000000000002 1.0000000180025095e-35 29.500000000000004 1.5000000000000002 13.500000000000002 144.69500000000002 1.0000000180025095e-35 1.0850000000000002 1.0000000180025095e-35 1.0000000180025095e-35 3130.5000000000005 3132.9100000000003 1774.0350000000001 3.9900000000000007 -1962.9999999999998 706722916.50000012 1648.7850000000001 7.5000000000000009 103.50000000000001 28.500000000000004 1956.5000000000002 101.90500000000002 2321.6300000000006 2682.5000000000005 1.5000000000000002 5786.9100000000008 108.50000000000001 1244.2350000000004 819.86500000000012 1.0000000180025095e-35 100.50000000000001 -1694.9749999999997 -1370.4999999999998 65.500000000000014 -670.85999999999979 36.500000000000007 22337.060000000005 944610305.50000012 1.5000000000000002 -120.99499999999999 3178.2400000000002 1618.5000000000002 1.0000000180025095e-35 6746.5950000000012 3098.0000000000005 1.0000000180025095e-35 1132544.6100000001 3020.5000000000005 10230.245000000003 1183.5000000000002 5175.5000000000009 -2287.3249999999994 4761.5000000000009 5080.7000000000007 -1.0000000180025095e-35 6.5000000000000009 17.500000000000004 56.945000000000007 5354.7450000000008 -5864.9249999999993 1911.8150000000003 2433.7600000000007 1774.0350000000001 1121.5300000000002 37.500000000000007 -1704.4999999999998 43.500000000000007 4.5000000000000009 207.50000000000003 577982.88000000012 12334.385000000002
decision_type=2 8 2 8 2 2 2 10 2 2 2 2 10 8 2 2 2 2 2 2 2 2 2 2 10 2 2 2 8 2 2 2 10 2 2 2 2 2 10 2 2 8 2 2 2 2 8 2 2 2 8 2 2 2 10 2 8 2 2 10 2 2 8 2 8 8 2 10 8 2 10 2 2 2 2 2 8 10 2 2 2 10 2 10 2 10 2 8 2
left_child=1 5 3 19 7 6 8 9 50 18 11 20 32 53 15 27 24 37 23 -3 33 -13 -8 -4 60 58 -5 34 29 30 59 -32 52 -11 -14 36 39 38 82 -23 45 56 67 -44 46 -27 57 -9 -49 -7 51 -1 -10 54 55 -6 -34 -18 83 -25 73 -51 -30 -64 76 -35 -21 -43 -69 -70 71 72 -16 -2 -66 80 -65 -60 -33 -80 -58 -71 -17 -19 85 -55 87 88 -41
right_child=16 2 4 26 13 49 22 47 12 10 -12 21 14 -15 70 17 44 25 -20 66 -22 35 -24 28 -26 40 -28 -29 62 -31 31 78 41 65 -36 -37 -38 -39 -40 86 -42 42 43 -45 -46 -47 -48 48 -50 61 -52 -53 -54 84 -56 -57 75 -59 77 -61 -62 -63 63 64 74 -67 -68 68 69 81 -72 -73 -74 -75 -76 -77 -78 -79 79 -81 -82 -83 -84 -85 -86 -87 -88 -89 -90
leaf_value=0.12287499320420187 0.041858644439004195 0.061471055795920777 0.12396813001263565 -0.37892321765837594 0.22921463788629898 -0.25156209837992349 0.14717806865052602 -0.10527159184633589 0.049493813936048167 0.2461067674915427 -0.1005326681412111 0.25391643039433148 -0.032789840123178295 0.13480609910427185 0.12639763322318764 0.33066247900312862 -0.0098122147574749435 0.050213582529515563 -0.16056065350457843 -0.3129946091435778 0.37606143277421705 0.19131239079664458 0.39298124514438193 -0.16654170874228252 -0.17520212207363295 0.26867414837199682 -0.56525354412451445 0.16817305073608266 -0.15220200168022932 -0.14931315005532358 0.25089257262189241 0.17399117102272965 0.14612624031943652 0.0081827865070111128 0.085744067853996034 -0.073903136195470315 0.28404892764946088 0.36729938310121107 0.13478240304952113 -0.08016185954902641 0.3481043633755182 -0.12232154231692186 0.26183966721686902 -0.042084196450525919 -0.14842313551161848 0.045972107210526324 -0.092936304422280527 0.15411692273211589 -0.1007849530004527 0.035057052335128472 -0.086256507047415623 -0.11063739492078294 0.23000606766885437 -0.12337530497843009 -0.11864921212832868 -0.051641508511071299 0.0055305421671585217 0.23677531032257637 0.083031409583542881 0.042766733375129602 0.03412486197304361 -0.13999426363029868 -0.066639034660034333 0.017355879243763285 0.0085335388028955871 0.15977728698359894 -0.11505201866030056 -0.0890387062556528 -0.068155795326481208 0.1363864992119628 0.11322448359330267 -0.14402626367938826 -0.069851626522354923 -0.13175803858172377 0.1743180140661284 -0.026441670077660476 -0.16651492850074009 -0.075836029745020683 -0.10836241497638771 0.10562828624906064 0.14518178736515197 -0.003476208757917557 0.19961865351679733 0.17392247924459028 -0.14217496266830784 0.076355847124246576 -0.13945267057622934 0.15396222145345209 0.10566956862154799
leaf_weight=25.440655205398798 10.485341716557739 44.37057020328939 56.351473040180281 39.710789376869798 9.7697736436966824 18.787251718342304 27.459772136993706 167.05523203359917 25.196256134659052 41.656473861075938 44.496387906372547 19.678427181206644 55.322805027477443 25.62273486959748 14.027500103227792 39.038306423462927 12.059309583157301 25.561911830678582 45.921061475994065 10.384690899169071 27.492295877076685 14.98379241209477 37.804184207692742 14.161144698038695 1305.7111300230026 18.017682916484773 42.527604258619249 59.97031438536942 26.17570719262585 19.271926485002041 31.209608287550509 12.87392339017242 44.204687807708979 24.832801246084273 116.55966974142939 46.968770988285542 10.195680608972905 31.362065454944968 41.070846411399543 27.318896717391908 19.945978999137878 30.701970234513283 15.947896040976049 15.157038449309765 19.168654575012624 18.419469923712313 15.576266272924839 14.940568186342718 14.948905972763894 17.906467515975237 75.828870085068047 14.291170691139994 24.725543942302465 22.802966128569096 37.814733643317595 13.598622886463998 27.209512548521161 13.53003635071218 27.698310490697622 20.358905909582973 15.139225488528607 30.154345385730267 119.10157899325714 21.14333155285567 21.727982257027179 32.422683631069958 34.673112056218088 40.055563281290233 33.278909055516124 32.864074253477156 15.310280707664786 21.016529981046915 18.091004233807325 195.17033853754401 21.826121730264276 46.837946549989283 14.823392841964958 19.740542594343424 15.794582040049137 14.945801758207379 31.199053032323718 24.375935482792556 25.780802277848125 47.180070099420846 395.93335020798258 11.905058972537516 11.405695780180393 11.353205703198908 11.969062156043945
leaf_count=1304 881 1437 1314 496 873 446 743 13435 508 1313 3528 704 1043 1223 867 1128 933 891 956 369 1301 845 1204 728 149287 680 1065 1020 1358 1702 834 608 1548 1097 1335 3832 809 1103 1185 2013 804 549 576 1058 1956 846 1011 1018 1341 528 4432 1086 1047 1845 3743 1224 1154 722 1104 1347 1359 2151 1918 1483 208 762 2921 1311 411 890 1119 1710 932 19725 1330 937 1155 756 1023 967 739 896 763 1383 40572 963 919 892 995
internal_value=-0.056216 0.000469442 -0.0569486 -0.25397 -0.0343229 0.0768038 0.0881412 0.0065315 0.0764192 0.0296929 0.0862798 0.115938 0.0901655 -0.111493 0.122965 0.139825 -0.160527 0.184926 -0.0106374 -0.0504544 0.205486 0.0423753 0.28956 0.00616402 -0.166081 0.129828 -0.475279 0.0787813 -0.0126197 0.0433234 0.0772757 0.13281 0.0387496 0.158075 0.0475923 0.0113548 0.0572637 0.255805 0.222783 0.0272467 0.22402 0.0241237 -0.00860145 0.113741 -0.0200122 0.156095 0.039782 -0.0852534 0.0266304 -0.124459 -0.0432314 0.0388827 0.138899 -0.124324 -0.0482088 0.0657778 0.0662491 0.120568 0.0856377 -0.0430978 -0.112139 -0.0747738 -0.044627 -0.0304501 0.0237516 0.0940278 -0.160673 -0.0321974 -0.0110065 0.0235236 -0.0114555 -0.0473807 0.0158587 -0.122906 0.0916126 0.0326998 -0.058425 0.0169225 0.0483123 -0.00432134 0.0801255 0.0768253 0.278542 0.130451 -0.135138 -0.0548663 -0.0123738 0.0162476 -0.0235484
internal_weight=4506.9 2920.06 1666.52 171.667 1494.85 1253.54 1186.69 977.405 1121.43 780.461 324.774 280.278 1005.87 517.447 614.114 545.669 1586.84 313.816 455.687 89.4284 126.404 153.874 65.264 409.765 1526.51 176.564 82.2384 231.853 353.414 128.616 109.344 74.8239 391.754 98.912 171.882 134.195 87.2263 137.252 105.89 77.0307 56.3831 341.833 192.381 31.1049 60.3343 36.4372 41.1656 196.945 29.8895 66.8481 115.561 39.7318 49.9218 491.825 61.1831 23.3684 149.451 25.5893 120.181 34.5201 220.795 48.0608 224.798 198.622 79.5208 57.2555 45.0578 161.276 130.574 90.5189 68.4453 53.135 32.1185 205.656 43.5541 105.247 35.9667 47.4389 43.6143 30.7404 58.4086 57.24 64.8191 72.742 430.641 34.708 62.0469 50.6412 39.288
internal_count=326527 150653 108466 6288 102178 42187 39062 51735 37115 35941 19010 15482 30293 50443 18669 14041 175874 10643 16931 4727 4473 11009 1947 15975 171252 6464 1561 3398 14661 7209 5507 3432 11624 3172 2378 10305 6473 4179 3076 5664 2330 10069 5691 1634 4622 1526 2666 15794 2359 3125 6822 2390 1555 49220 5840 2097 4378 1655 4134 2075 21965 2679 7452 6094 4176 1859 3290 4057 3508 2197 4628 3509 1799 20606 1538 2830 2638 1860 2598 1990 1893 1786 1891 2274 43380 2808 4819 3900 3008
is_linear=0
shrinkage=0.18516


Tree=3
num_leaves=90
num_cat=0
split_feature=51 137 16 111 22 108 33 50 8 94 22 81 109 133 71 131 22 149 80 131 115 10 97 33 16 7 151 9 18 138 8 145 28 4 22 5 9 140 8 23 113 113 127 107 10 22 11 8 8 8 107 147 31 9 9 33 137 5 147 113 16 8 83 16 28 83 134 5 73 107 33 22 7 0 5 140 11 6 138 107 0 12 97 74 107 123 33 22 6
split_gain=650.574 235.698 118.386 124.869 106.356 65.2801 58.3841 58.9282 57.1723 51.885 40.9125 38.3633 35.4461 34 32.1052 30.457 29.7486 30.8605 34 28.3939 27.3519 33.9177 35.7138 24.4142 24.5141 29.771 26.5252 31.2847 24.254 22.8425 22.3743 22.0794 21.4101 21.2617 21.0589 20.3619 19.3084 21.2537 20.286 19.1381 22.24 19.0796 20.4721 19.0471 20.9754 18.6585 20.2374 16.5058 15.9475 15.942 15.8814 15.6572 14.6874 14.6365 13.1923 12.7936 14.66 12.7823 14.0889 12.1372 12.1268 11.348 10.1571 10.0324 9.99285 9.92576 9.74199 9.25851 9.02472 8.72161 8.2555 8.16493 7.87178 7.78805 7.83257 10.1673 7.64766 7.60808 7.5248 7.10694 7.09704 6.97386 8.21731 14.4593 6.81296 6.30887 9.23115 9.50123 6.24889
threshold=1.0000000180025095e-35 8244.0350000000017 -13306.239999999998 6.5000000000000009 21132.180000000004 1.0000000180025095e-35 13857.880000000003 1.0000000180025095e-35 6967.6800000000012 1.0000000180025095e-35 183534.20500000005 1209.9400000000003 1.0000000180025095e-35 8.0000000000000018 1.0000000180025095e-35 1694.9850000000001 7980.7900000000009 366.50000000000006 1.5000000000000002 416.41500000000002 142.62000000000003 385.09000000000009 17.500000000000004 21358.765000000003 -1694.9749999999997 1.0000000180025095e-35 3.5000000000000004 1604.2600000000002 3330.5500000000006 19419.195000000003 10359.730000000001 4.5000000000000009 1.0000000180025095e-35 1.0000000180025095e-35 6353.295000000001 48.500000000000007 1592.1950000000004 7965.5250000000005 14848.110000000002 1.5000000000000002 -774.99999999999989 -1551.4999999999998 3672.5000000000005 18.500000000000004 -564.11999999999989 -1807.7399999999998 77.445000000000007 14655.890000000001 10359.730000000001 2392.5250000000005 108.50000000000001 -11548.159999999998 622.5200000000001 215.31000000000003 259.83500000000004 8990.9100000000017 12780.380000000003 69.500000000000014 -206129.04499999995 -1505.9999999999998 -1694.9749999999997 6481.8150000000014 62171.930000000008 -727.96999999999991 2598.2850000000003 2347.1700000000005 129323.25000000001 28.500000000000004 6.5000000000000009 5.5000000000000009 7137.0250000000005 6746.5950000000012 2129.9350000000004 1127932536.5000002 63.500000000000007 21101.270000000004 13.935 163.50000000000003 25840.095000000005 25.500000000000004 1050883271.0000001 8.5000000000000018 105.50000000000001 1823.7350000000004 16.500000000000004 4.5000000000000009 42934.17500000001 983.21000000000015 53.500000000000007
decision_type=2 8 2 8 2 2 2 2 2 2 2 2 2 8 2 10 2 10 2 8 8 2 2 2 2 2 8 2 2 10 2 10 2 2 2 2 2 8 2 2 8 10 10 2 2 2 2 2 2 2 2 10 2 2 2 2 8 2 10 10 2 2 2 2 2 2 10 2 2 2 2 2 2 2 2 10 2 2 10 2 2 2 2 2 2 8 2 2 2
left_child=1 6 3 11 5 8 7 9 15 10 12 35 20 48 32 23 17 -14 31 -7 21 22 41 24 88 28 -27 54 59 43 -20 39 61 -5 -11 -3 64 38 -38 40 -19 49 66 69 -45 -22 -47 -24 51 -1 57 81 55 -30 -28 56 -46 58 -16 -26 -9 62 67 -57 65 -18 80 -2 -12 -10 73 -62 -58 74 -31 -76 -8 -17 -29 -34 -43 82 -6 -84 -25 -69 87 -87 -4
right_child=14 2 4 33 13 19 76 60 29 34 68 -13 16 -15 50 77 36 18 30 -21 45 -23 47 84 25 26 27 78 53 70 -32 -33 79 -35 -36 -37 37 -39 -40 -41 -42 42 -44 44 52 46 -48 -49 -50 -51 -52 -53 -54 -55 -56 63 72 -59 -60 -61 71 -63 -64 -65 -66 -67 -68 85 -70 -71 -72 -73 -74 -75 75 -77 -78 -79 -80 -81 -82 -83 83 -85 -86 86 -88 -89 -90
leaf_value=0.024900575002338336 0.12614615874116919 -0.0044301767255264315 -0.050161966682230059 -0.22609719858436925 -0.09124538845606571 0.50078878777306113 0.0060948383068413648 -0.25712010465043811 0.00061495476269384864 0.26593993593775539 -0.02056071959445142 -0.15921887058968837 0.0095567419741005907 0.088007909129841022 0.14127539142366724 -0.14738335630309829 -0.059497417784905096 0.32376956764581216 0.40476673234821825 0.088539067696386475 -0.074444424191446743 0.22026638599151585 0.21055034890655577 0.019809911612451374 0.027591066002957163 0.027632508654249873 0.2137844130009067 0.40497966195421509 0.12553152329246786 -0.10347410388409707 0.16736758257134926 0.016364707711651647 -0.029345735263305358 -0.38787903480672953 0.085413602347191739 0.24646597440180387 0.1937262460876614 0.27922149898565601 -0.059957391369597345 0.076341189031816109 0.12988837907348341 -0.097265195701936494 0.11358183333989916 -0.11527625920196818 0.035354434971226395 0.18648091540410011 -0.037571392580461486 0.041495676707186652 -0.13819480858302938 0.21490915244317393 -0.1581513634532116 0.11873600739451733 -0.060958872392718827 -0.11684828740338843 0.033938013424794175 -0.12480216677136488 0.14161372813966716 0.19649835023698428 -0.098936678131246084 0.20549046538291507 0.029827596429192367 -0.14329046180363061 0.13900103456979859 0.1241975638705682 -0.11337303548431203 0.12802024457566391 0.016794668807233803 -0.14203265011049443 -0.16108086966511337 -0.084720279433838738 -0.15610243631862886 -0.13169556771203586 0.30720411137243775 0.042766206599045509 0.10449118059974877 -0.1064125060311986 -0.12878378152296083 0.032358976887841978 0.25282916060998178 -0.17448649664554458 -0.0018695914236566866 -0.1723770664124549 0.17128929887423489 -0.11200412011775228 -0.15954291144857438 0.21574328602661122 -0.18683515578799384 -0.074697047275554346 0.040114971646417578
leaf_weight=30.091125071980059 7.0517047299072138 25.416344690136611 40.090525136329234 52.888283344218507 84.593870871234685 12.554931772407146 18.852657628245652 15.124916528817264 69.061787193641067 64.468551639467478 37.065393910743296 32.344012964051217 43.49780066870153 30.50697704218328 11.838200669735665 31.373607380315661 19.529300617054105 41.426861955784261 32.384935846552253 10.533704067114739 93.353301501832902 44.804855185560882 60.981763042509556 11.568859486840667 24.56213197670877 33.64889098610729 28.40588750038296 23.559010346420109 11.181018351577221 126.59353168169037 23.478388678282499 39.128876195289195 11.692189285065977 58.829063645098358 33.752377732656896 19.674033565912396 18.554321412928402 19.17068360792473 25.882019707933068 43.246153114363551 39.744611674919724 62.681762669235468 51.088237510062754 22.958699163049459 21.35159925930202 24.607458837330341 31.531798008829355 29.320831809192896 304.6689873309806 30.466008093208075 25.92482465878129 14.474950294941662 20.254082690924406 36.182748127728701 27.540633648633957 11.557499730959536 19.339819894172251 11.005182264372705 28.582167217507962 28.293439800851047 18.259818614460528 114.21414883621037 8.518438386730848 10.668198353610931 26.974602497182786 19.184576633386314 143.50668962672353 40.045162060298026 27.144606512505561 101.27563366480172 47.986579057760537 26.016798412892967 20.04178759502247 18.916031909640878 15.80303128808737 15.545745767652987 61.192178286612034 10.871152349747716 21.147095425985754 1074.7123864865862 46.625034031458199 24.905986401252449 12.396539083682002 12.311086327303199 19.501516327261925 7.2729340866208103 7.667257663793861 8.2325586527585966 76.347725822590292
leaf_count=740 718 953 867 578 8281 871 1019 425 769 1056 2422 3366 1136 1267 572 2308 844 949 954 883 962 721 1483 776 956 1240 704 624 718 9917 935 916 1309 1209 1230 780 809 840 1791 934 795 1150 1121 1974 1228 638 1769 1249 35920 785 3207 1226 1425 2837 884 769 737 742 2348 1392 516 13050 905 799 1886 987 2218 4278 2326 1597 5323 2121 843 1198 985 1373 3786 941 1065 146236 674 2624 1269 1294 1550 716 891 902 2146
internal_value=-0.0495139 -0.00119048 -0.0482527 -0.18604 -0.0303102 0.00509928 0.0563339 0.066052 -0.00241136 0.0749365 0.0634777 -0.00533866 0.0723232 -0.101202 -0.155825 0.0480573 0.116271 0.152032 0.180278 0.312709 0.0457671 0.0665598 0.0514161 0.0645543 0.0784815 0.112963 0.169951 0.21753 0.0365938 -0.0434824 0.304992 0.137679 -0.162829 -0.31129 0.203904 0.105042 0.0435544 0.116269 0.0459678 0.175832 0.228838 0.0255876 0.00667624 -0.00973241 0.0447952 -0.0237169 0.0606372 0.155659 -0.113935 0.120493 -0.0399859 -0.0642229 0.0804015 -0.0596304 0.125252 0.114914 0.158901 0.0195841 -0.0285841 0.12282 -0.11398 -0.106 -0.0519429 -0.00528383 -0.0268559 0.0334265 -0.0149271 -0.0750901 -0.0799652 -0.0501219 -0.0879895 -0.0650829 0.225885 -0.0695086 -0.0829552 -9.51989e-05 -0.0970163 -0.101129 0.333009 -0.172924 -0.056574 -0.083956 -0.0638079 0.0301325 -0.092762 -0.0975371 -0.0206438 0.0615355 0.00903197
internal_weight=4341.62 2984.87 1641.73 189.152 1452.58 968.717 1343.14 1263.09 945.628 1203.69 1105.47 77.4344 1041.26 483.858 1356.76 424.274 392.203 262.908 219.41 23.0886 649.059 499.566 454.761 382.029 350.959 234.521 134.302 100.653 100.219 521.354 55.8633 163.547 1279.41 111.717 98.2209 45.0904 129.296 63.607 44.4363 124.418 81.1715 364.459 303.902 296.509 126.172 149.493 56.1393 90.3026 453.351 60.5571 77.3504 148.682 103.213 47.3638 55.9465 82.9589 60.7332 51.4256 40.4204 52.8556 59.4015 193.002 78.7881 22.2257 65.6885 38.7139 252.813 70.2696 64.21 170.337 224.845 44.2766 39.3816 176.858 157.942 31.3488 80.0448 42.2448 44.7061 1086.4 109.307 134.207 109.301 24.7076 31.0704 63.2179 23.1728 15.5055 116.438
internal_count=326527 150653 108466 6886 101580 49699 42187 37382 47945 34320 32034 5099 27286 51881 175874 19008 13776 6619 5483 1754 13510 10141 9420 15759 13433 10420 4517 3277 5903 28937 1889 3594 169005 1787 2286 1733 7157 3440 2600 2678 1744 6688 5163 10141 7775 3369 2407 2732 50614 1525 6869 14694 5801 3555 1588 4376 2808 3662 2920 2348 3062 21460 8410 1568 3717 1831 4042 7505 4748 2366 18796 2637 1580 13473 12275 2358 4805 3249 1689 147545 1824 13468 10844 2563 2326 6787 2509 1618 3013
is_linear=0
shrinkage=0.18516


Tree=4
num_leaves=90
num_cat=0
split_feature=52 133 138 21 22 111 11 21 10 4 33 94 33 50 113 132 96 64 27 17 97 11 97 126 80 16 73 72 22 129 31 5 58 127 149 127 10 109 138 22 5 7 16 149 22 8 146 22 109 7 5 8 17 82 140 7 109 8 74 5 113 0 56 72 9 4 72 149 11 127 22 22 73 8 112 11 73 58 116 27 72 140 127 113 11 108 58 56 112
split_gain=544.981 227.119 148.247 87.3079 71.808 76.1069 57.3033 42.8476 34.1321 31.1214 31.8736 31.4832 29.2523 30.5789 28.7264 25.8695 23.7606 32.8079 23.0611 22.9016 20.953 20.7765 21.1093 20.1842 18.2431 17.4265 18.5267 16.8058 16.636 15.3679 14.0302 15.1367 16.7625 15.5805 13.8736 13.8574 23.2928 17.6957 20.2191 15.9453 14.8813 14.1177 15.2211 13.8156 18.0214 12.566 14.022 12.1971 11.504 13.7994 10.7399 10.7059 10.5512 11.9548 10.4755 10.0886 9.83936 10.0579 9.19084 9.09601 8.81608 8.64384 8.59167 8.66349 17.5732 8.58225 10.1618 8.14381 10.6011 7.70358 9.39885 16.502 6.83184 6.7964 10.2545 9.56822 8.76394 8.88048 8.64108 6.73313 6.47645 6.42434 6.14909 11.0187 6.07388 6.03898 5.962 5.78229 14.6343
threshold=17595.585000000003 8.0000000000000018 9197.7600000000002 1.0000000180025095e-35 -14384.464999999998 6.5000000000000009 598.49500000000012 1.0000000180025095e-35 -607.16999999999985 1.5000000000000002 3132.9100000000003 1.0000000180025095e-35 74841.460000000021 1.0000000180025095e-35 -243.49999999999997 1.0000000180025095e-35 1.0000000180025095e-35 15580.620000000001 1.0000000180025095e-35 3.5000000000000004 41.500000000000007 1111.9450000000004 86.500000000000014 3.0700000000000007 1.0000000180025095e-35 -6249.1549999999988 1.0000000180025095e-35 3398.6200000000003 127448.76500000001 2.5000000000000004 1913.5350000000001 44.500000000000007 674.37000000000012 2395.5000000000005 4936.5000000000009 384.50000000000006 385.09000000000009 1.0000000180025095e-35 3166.9900000000002 -6411.6299999999992 38.500000000000007 1784.3550000000002 -197.94499999999996 4069.5000000000005 25.970000000000002 -12517.164999999999 12713.885000000002 49.095000000000006 1.0000000180025095e-35 728.20000000000016 43.500000000000007 34847.460000000006 3.5000000000000004 2.5000000000000004 16664.315000000006 1760.4050000000004 1.0000000180025095e-35 2064.7800000000002 110.97500000000001 62.500000000000007 -1262.9999999999998 340061721.00000006 7414.3950000000013 3398.6200000000003 4186.2250000000013 1.0000000180025095e-35 1774.0350000000001 2831.5000000000005 40.195000000000007 1617.5000000000002 -387.05999999999995 983.21000000000015 12.500000000000002 -918.47499999999991 114015.60000000002 8.0850000000000026 6.5000000000000009 1982.575 5.6950000000000012 9.5000000000000018 760.48500000000013 2938.5200000000004 1081.5000000000002 -623.99999999999989 107.16500000000002 1.0000000180025095e-35 745.11500000000012 4643.8700000000008 190026.00000000003
decision_type=2 10 8 2 2 8 2 2 2 2 2 2 2 2 8 8 2 2 2 2 2 2 2 8 2 2 2 2 2 8 2 2 2 10 10 10 2 2 10 2 2 2 2 10 2 2 10 2 2 2 2 2 2 2 8 2 2 2 2 2 8 2 2 2 2 2 2 8 2 10 2 2 2 2 10 2 2 2 8 2 2 10 10 10 2 2 2 2 8
left_child=1 2 7 14 5 24 9 -1 56 10 11 27 13 16 -4 28 29 21 19 -2 -13 22 30 -22 54 -16 -27 34 52 -10 31 32 48 69 43 39 37 59 40 -31 -39 42 -41 45 -45 -6 50 -35 -18 -50 73 -15 62 -54 -5 -49 -9 -58 -52 82 -36 -12 63 72 -65 66 -28 -60 -69 70 -33 -72 85 78 75 -75 -77 -78 -47 -46 -20 -62 -37 -84 -73 87 -23 -8 -89
right_child=18 -3 3 4 6 -7 15 8 12 -11 61 20 -14 51 25 -17 17 -19 80 -21 23 86 -24 -25 -26 26 65 -29 -30 35 -32 33 -34 47 60 36 -38 38 -40 41 -42 -43 -44 44 79 46 -48 55 49 -51 58 -53 53 -55 -56 -57 57 -59 67 -61 81 -63 -64 64 -66 -67 -68 68 -70 -71 71 84 -74 74 -76 76 77 -79 -80 -81 -82 -83 83 -85 -86 -87 -88 88 -90
leaf_value=0.2299785179140337 -0.11108202272727072 0.4943666516572286 0.23874817039979562 -0.046010050139407149 -0.11871457465590805 -0.27314289033267314 -0.086914553357768196 -0.13841199329845671 -0.078443003641421413 -0.16782939683546147 0.077221145449902898 0.039056183727905827 -0.12933101312098458 -0.019701824147583806 0.15243340136594682 0.1141565376389243 0.056801364316709908 -0.079030588326215442 -0.17088011956811619 0.17397184197995375 0.077147361355082919 -0.099608879089432195 0.23996270960697921 0.38247827614192115 -0.14651125196375703 0.1443767944232982 -0.065376003456948301 0.14228589451618262 -0.15273875671772641 -0.12114657728922021 -0.025008899972278269 -0.015087437202406285 0.24304882509593079 0.2148932147935225 0.041560729236783694 -0.053498074250221586 0.18515667823137455 0.25279232489501252 -0.047965287141424132 -0.10798613825757419 0.083808368219944654 0.12628940134233088 0.0441468928665259 0.23470378665231781 0.095750318455214645 0.19653154920337979 0.14797197800812426 -0.0051729592680351856 0.067025683698113223 0.21219985943090058 0.055190595659201529 -0.19424533356750154 -0.094452921828543007 0.22451166951503859 0.13261945879872761 0.15654625657490778 0.060594163920374727 -0.079225887414369783 -0.10336281325795631 0.077503887600268953 0.024039468517839207 -0.12788537452334661 -0.15744137914454698 0.27401989280975558 -0.081458593106151153 -0.090182227077015856 0.070667979980524528 -0.078838997583566106 0.045770392580380639 -0.050870111292646951 0.22064278935433854 -0.044107977206128343 -0.15422104004295148 -0.050809046514839508 -0.077192052467753444 0.12040967275211982 -0.10726673133475377 0.11204373790035846 -0.0025744985979875793 -0.093115074657784971 -0.082934199557724991 -0.12498577274605101 0.082352916335349538 -0.042093790793925681 0.088464442268769122 0.070302916486254141 0.075265698248023441 -0.15785994240666329 0.23556771568678514
leaf_weight=37.714695613831282 160.40960636409 31.020346799166873 28.213015500456095 21.863927506376058 34.277773017529398 105.26213782164268 161.5674677665811 41.452944756951183 47.31300814030692 43.927127568167634 7.6982189430855206 43.512648959411308 34.477720479480922 26.028567451518029 36.606525922543369 19.201145835919306 81.446124937850982 43.644323659129441 887.14525056118146 10.282245955429969 13.873059397097679 24.826647317036986 33.119266837369651 15.964317965321241 27.005228675436229 28.291845276486129 32.222143951803446 24.559692759532481 164.288322229404 36.45945151662454 35.428605665452778 46.003155334154144 38.171016491483897 33.069380769506097 17.492239631246775 75.416355865076184 39.97445639455691 28.27539800433442 24.234544435981661 38.061091772746295 48.534765034448355 31.033049562945962 55.315938458777964 18.846016222145408 12.352263900917025 16.063893469516188 20.320441524498165 27.85436848225072 38.256513573229313 54.32270744908601 29.742998575558886 22.430160992313176 8.0100091942586022 8.1048428830690664 23.197156120091677 25.181010068394244 28.497651974204928 46.28891626605764 72.150850065052509 47.75331303384155 11.588843225035815 82.934780035633594 50.489136894000694 7.2250395133160081 14.018624025397001 41.573179788887501 45.269249079283327 50.13903004815802 43.901940492447466 33.192087359726429 23.171628871001303 21.062559809070081 39.451909743249416 30.286036232952029 36.728774441406131 47.231012475211173 14.830322078429164 11.044107549590988 13.973381061572583 13.593075068201868 29.667743747122586 68.765946470666677 46.348423227667809 51.491656249389052 27.083140276838094 10.040787274017928 9.1463270206004363 6.393889774102715 6.574321116786451
leaf_count=893 19840 397 1126 863 2228 1519 17888 2221 1391 1208 828 1945 2379 1106 368 846 1487 2602 143323 857 857 1941 1181 762 3086 1048 1372 1442 22772 474 1270 660 1002 562 1130 1048 726 641 1040 535 1452 907 1601 889 904 820 1128 858 963 1087 743 1507 954 1032 794 982 1366 3260 4092 1083 672 8464 6274 752 1571 754 993 557 2252 770 498 504 4910 362 2299 1492 951 811 801 1150 3187 5024 782 819 1330 902 800 769 791
internal_value=-0.0435571 -0.00414595 -0.00916226 -0.0462487 -0.0622902 -0.172774 -0.0471164 0.0352931 0.0299115 -0.0163408 -0.00749024 0.0066239 0.0388489 0.0436266 0.064776 -0.096557 0.0496204 0.0755051 -0.1564 -0.0939108 0.121005 0.0877383 0.0969491 0.240513 -0.0261722 0.0380952 0.00969117 -0.00764725 -0.105054 0.0226113 0.0871678 0.0960228 0.13193 0.0638214 -0.014184 0.0317549 0.0518479 0.0353011 0.0994907 -0.0134633 0.146015 0.0180942 -0.0178635 -0.000861573 0.0968992 -0.0112703 -0.00173912 0.12664 0.107557 0.15221 -0.010049 -0.100493 -0.0799349 0.0659679 0.0459473 0.0716108 -0.0660539 -0.025947 -0.0396034 0.00595397 -0.0775617 -0.110464 -0.0878845 -0.0735663 0.0394408 -0.0223125 0.0140987 -0.0565685 -0.0206665 0.0278845 0.0501656 0.092257 -0.0842823 0.0239825 0.00684926 0.0367041 0.0729589 -0.0136574 0.103907 -0.00319853 -0.168034 -0.103493 -0.0137668 0.0168586 0.0304673 -0.0693334 -0.0525285 -0.0773664 0.0415908
internal_weight=4201.27 3113.77 3082.75 1680.67 1468.49 177.328 1291.16 1402.08 1364.37 795.799 751.872 661.239 1248.13 1213.65 212.176 495.365 1165.19 594.979 1087.5 170.692 73.35 551.335 517.362 29.8374 72.0663 183.963 147.356 587.889 476.164 570.211 484.242 448.814 212.196 236.617 563.329 522.898 362.029 322.054 101.045 160.87 76.8102 124.41 93.377 465.482 44.7914 420.691 386.413 86.1048 174.025 92.5792 366.092 48.4587 311.876 16.1149 45.0611 53.0354 116.24 74.7866 195.935 221.01 97.847 90.633 295.761 245.272 21.2437 119.065 77.4914 166.192 94.041 150.513 117.32 71.3173 224.028 170.158 140.12 103.391 73.1054 25.8744 30.0373 25.9453 916.813 80.3548 173.256 97.8401 48.1457 184.576 33.973 174.536 12.9682
internal_count=326527 159320 158923 115195 109534 6262 103272 43728 42835 43811 42603 33311 35988 33609 5661 59461 30996 18497 167207 20697 3564 15895 13154 1619 4743 4535 4167 29747 58615 12499 11973 10703 4539 6164 28305 11108 7591 6865 3133 3517 2093 3043 2136 21479 2943 18536 16308 2402 3537 2050 15180 2613 35843 1986 1657 1840 6847 4626 7644 3732 6826 9292 33857 27583 2323 3119 2365 6901 2809 3762 2992 2332 25260 7536 5915 3616 3254 1762 1621 2054 146510 5696 2649 1601 1834 20350 2741 19448 1560
is_linear=0
shrinkage=0.18516


Tree=5
num_leaves=90
num_cat=0
split_feature=52 133 107 22 111 108 137 71 8 151 33 22 107 22 127 8 149 27 10 22 74 140 99 142 22 147 82 16 8 10 151 8 137 137 74 127 147 138 124 74 135 97 72 64 8 8 149 8 10 5 113 107 140 1 20 8 22 1 22 137 107 22 131 10 120 125 16 153 22 147 8 74 113 113 5 113 113 140 27 149 58 16 113 81 33 10 8 112 104
split_gain=450.893 133.486 107.061 75.6834 117.312 61.21 48.0454 52.6486 26.2972 27.9754 26.0492 28.9439 37.9585 37.1014 27.0053 25.3776 24.0259 23.9632 22.9874 22.7348 20.8566 20.6201 20.455 20.2293 19.867 19.5801 17.7215 20.8891 17.0657 17.7821 16.5132 16.4404 14.1527 14.1396 13.9018 13.8253 13.5667 14.596 15.234 13.4839 14.7427 15.8714 11.8815 11.8073 10.9786 10.6746 11.8178 10.6557 10.4653 9.96247 9.88284 14.9577 8.98184 8.97999 8.94679 8.91323 8.64945 8.5141 8.10392 9.27093 7.94246 10.2502 7.59474 7.53456 9.00862 11.718 11.4026 8.4835 10.7966 12.3932 7.52839 27.9569 10.9188 21.0957 7.59764 7.4601 8.53975 7.31549 10.4766 17.7506 7.88476 7.15283 6.7957 6.88401 6.77 19.2502 8.87718 13.1139 6.75447
threshold=17595.585000000003 8.0000000000000018 115.50000000000001 -14384.464999999998 6.5000000000000009 1.0000000180025095e-35 16756.440000000006 1.5000000000000002 7304.1050000000005 16.500000000000004 63159.700000000004 -2193.0599999999999 17.500000000000004 22554.635000000006 78.500000000000014 12135.720000000003 2211.5000000000005 1.0000000180025095e-35 -782.30999999999983 -387.05999999999995 1485.3200000000004 8083.6450000000013 1.0000000180025095e-35 1692824.2500000002 7549.4850000000015 -4328.0999999999995 1.0000000180025095e-35 -1.0000000180025095e-35 20448.445000000003 -148.90999999999997 1.5000000000000002 11534.695000000002 9709.6250000000018 14618.540000000003 1776.2900000000002 5731.5000000000009 -12641.744999999997 53906.405000000006 2182.8850000000007 1823.7350000000004 -820.49999999999989 17.500000000000004 1890.7700000000002 10855.465000000002 -1.0000000180025095e-35 1900.9300000000003 408.50000000000006 -198.69999999999996 47.650000000000006 54.500000000000007 -851.49999999999989 5.5000000000000009 14334.495000000001 202103.50000000003 2.1950000000000007 9637.1200000000008 153630.62000000002 202103.50000000003 837.69500000000005 22591.830000000005 31.500000000000004 9873.1900000000005 803.50500000000011 -1093.4499999999998 492404.87000000005 -426.25499999999994 -1.115 2304.9450000000002 57531.985000000008 -29324.864999999994 13159.425000000001 1776.2900000000002 -1140.9999999999998 -1490.4999999999998 41.500000000000007 -698.49999999999989 -1414.9999999999998 11302.770000000002 13.500000000000002 2137.5000000000005 1606.8100000000002 -2390.8649999999993 -333.49999999999994 3843.9200000000005 46040.685000000005 1080.4950000000001 5222.1200000000008 46802.700000000004 5806.3500000000013
decision_type=2 10 2 2 8 2 10 2 2 10 2 2 2 2 8 2 10 2 2 2 2 8 2 8 2 10 2 2 2 2 10 2 10 8 2 8 8 10 8 2 10 2 2 2 2 2 10 2 2 2 8 2 8 2 2 2 2 2 2 8 2 2 10 2 10 8 2 10 2 10 2 2 8 10 2 10 10 8 2 10 2 2 8 2 2 2 2 10 2
left_child=1 2 3 4 15 6 7 10 9 30 11 12 50 14 -13 -1 18 22 47 57 24 -7 84 43 44 32 31 -28 29 62 -8 39 49 -31 -17 55 37 38 58 40 41 -18 -12 52 -21 -46 -47 -16 -33 81 -5 -52 70 -6 -54 -22 -56 -20 75 -60 61 -19 77 -10 67 -66 -67 68 69 -65 71 74 73 -72 -15 76 -32 -4 79 -79 -80 -14 -30 -84 85 86 87 -2 -74
right_child=17 -3 28 5 53 21 8 -9 63 -11 42 13 25 23 16 34 26 60 19 20 35 -23 -24 -25 -26 -27 27 -29 82 33 36 48 -34 -35 -36 -37 -38 -39 -40 -41 -42 -43 -44 -45 45 46 -48 -49 -50 -51 51 -53 54 -55 56 -57 -58 -59 59 -61 -62 -63 -64 64 65 66 -68 -69 -70 -71 72 -73 88 -75 -76 -77 -78 78 80 -81 -82 -83 83 -85 -86 -87 -88 -89 -90
leaf_value=-0.053136598850363564 0.14028137691843928 0.35757644366133928 -0.1113505537547175 0.0074747604672987886 -0.25443110790897233 0.40481952919935282 -0.13951402396111975 0.27993046878808464 -0.13963508792103232 0.24482838420451553 -0.11752751948450832 -0.086511795192391869 -0.10868769405059042 0.025464576079093981 0.045553865594985206 0.21663573654158291 -0.074088943253887415 0.16634830063992107 -0.0070830448963708761 0.22209840410999904 0.24310474023561196 0.12857742018319426 0.24978306199042488 0.14987446450647615 -0.038308427241831831 0.17115061284010608 0.2153009773307393 0.015973726875694975 -0.14452843887593061 0.13408956964024626 0.0087108664230903972 -0.07544729438268799 0.15669829076392608 -0.077360275486249644 0.050096310116107878 0.31596504008237575 0.16141145150484179 -0.11732393057155334 0.22517690797023376 0.16695352457480267 0.12130376995439533 0.09031844959862477 0.080823754105225562 -0.11725044473610863 0.044326788652493294 0.065308778342533833 0.20088384621598393 -0.14700458185728404 0.041728733800175645 0.092825078278768111 -0.0078175164435021066 -0.087033165793944919 -0.044592528465728358 -0.16069824739022553 0.15424987641290153 0.10480212071534119 -0.0086342243394715214 0.094050026572681925 0.064234647031536113 -0.11914913409189068 -0.1670074543149338 -0.16284034533771496 -0.13284501383888103 0.23444552923155421 -0.12900995968832668 0.28334282982582132 -0.02645904345885855 -0.1149187523180404 -0.18651820690488868 -0.038735633121468598 -0.12287154073139162 0.21771196708741825 -0.13752321840873433 0.21065266268685232 -0.11138370360190344 -0.050533518471508672 0.19056399681507655 -0.089061826763338015 0.085933127396702183 0.26484402326694984 -0.087285747362810293 0.022320316800349387 0.10718604591168407 -0.094769895451744773 -0.17478702201315238 0.22800090800892125 -0.13823596216054959 -0.091120416572509411 0.025287131461308485
leaf_weight=57.290014779195189 11.317377696279435 34.516619041096419 50.576795934699476 154.61950690671802 64.765444572956767 16.653035385534167 30.766411407617852 27.458494865568355 67.45346837642137 15.312954536173491 63.022489812690765 39.265268945600837 31.244933251058683 24.343110790941864 23.596218464896083 27.081674769055098 56.519404592458159 5.6540774526074511 60.36000895826146 34.250672684982419 27.444347027223557 20.879367427900434 6.0151795470155767 24.333601450081915 28.618710275739431 48.980019191280007 36.097854192834347 36.002974521368742 175.27810748817865 26.663454013178125 18.382610619533807 82.839389672037214 23.300271169748157 18.272234657779336 47.019788260571659 29.069965571165085 17.716750791762024 33.461482527665794 11.388135852292178 28.77135119959712 38.981755615677685 31.268141862470657 12.388993870932607 41.521926372312009 58.712652545422316 37.248442558106035 53.997661123052239 16.915648792870343 38.173217080067843 24.191144461045042 155.98581487103365 171.6476859736722 25.410779663361609 76.352745445678011 29.086106726899743 38.231181700713933 18.152436731848866 54.136094830930233 13.888799458276482 29.581918960902836 763.3963515739888 7.6044535357505083 64.907092860899866 8.6208148309960944 9.499663118273018 8.2145650619640964 8.0790385124273616 91.842778538702987 8.5519370525144023 16.766527567990128 14.110933567862959 17.036553863901645 53.803397647105157 12.057341595180331 32.449576610699296 17.829293946735561 17.07787883002311 9.2533200352918374 10.829176576808093 10.230993217788635 53.609948131605051 26.327556503936648 6.8955830793711348 35.979648262087721 31.467479502316564 6.6455602711066595 68.02506934851408 32.531595514155924 10.429632245562969
leaf_count=1535 1341 397 4707 1492 824 674 1700 809 8359 1066 5041 949 1044 1249 1163 784 1539 635 938 881 512 1400 579 937 1235 1251 1300 1579 24321 1288 841 3359 1210 1628 1356 756 896 2865 760 757 985 869 944 3774 1428 976 1409 1056 1169 771 837 1108 1552 986 1258 1294 1074 861 1150 2863 144735 1140 7935 802 1096 677 1041 8272 1254 1429 1211 910 4398 1042 2109 839 720 751 1148 1120 6031 725 693 4332 4563 716 9481 4017 1019
internal_value=-0.0382606 -0.00453047 -0.00857617 0.00588691 -0.086492 0.0165794 0.0127795 0.0254072 -0.0435228 0.0040698 0.0216597 0.0261519 -0.00554993 0.0436434 0.0634576 0.0394103 0.0707164 -0.151238 0.0983804 0.111168 0.137388 0.251145 -0.0850155 -0.0120224 0.105217 0.0744678 0.0340127 0.115769 -0.0907234 -0.057116 -0.0153245 0.0126979 0.029395 0.0481076 0.110961 0.209653 0.0086568 -0.0104542 0.0226115 0.0525184 0.0265463 -0.0155304 -0.0849413 -0.026173 0.127515 0.105912 0.145539 -0.0348485 -0.0384843 -0.00688271 -0.0311096 -0.0493187 -0.0102083 -0.203716 0.0440013 0.162596 0.0916581 0.0407347 -0.0012292 -0.0605584 -0.16454 -0.0224584 -0.0808277 -0.0881553 -0.065246 0.0344362 0.12973 -0.0856871 -0.0065836 0.0540289 -0.0341886 0.00967902 -0.0700145 0.0308037 -0.0527263 0.0471681 0.0962919 -0.0557252 -0.0222024 0.0967701 -0.0581758 -0.0487785 -0.128365 -0.0622895 -0.0984425 -0.0781727 -0.09636 -0.0313958 -0.111087
internal_weight=4056.55 3123.89 3089.38 2626.88 272.51 2354.37 2316.84 1892.4 424.435 205.406 1864.94 1789.53 636.297 1153.24 850.501 131.391 811.236 932.657 462.582 422.07 307.574 37.5324 156.002 302.735 212.828 154.044 348.654 72.1008 462.496 244.343 190.093 276.553 105.064 44.9357 74.1015 94.7455 159.327 141.61 108.149 155.541 126.769 87.7875 75.4115 278.402 184.209 149.959 91.2461 40.5119 121.013 81.7636 482.253 327.634 236.88 141.118 72.6493 65.6755 47.2385 114.496 96.7605 43.4707 776.655 13.2585 199.407 219.029 151.575 25.7933 16.2936 125.782 33.9393 25.3873 164.231 73.8292 90.4013 26.1683 56.7927 53.2898 35.4605 134.5 83.9234 19.4843 64.4391 57.5725 218.153 42.8752 149.987 118.52 111.874 43.849 64.233
internal_count=326527 159320 158923 104969 5485 99484 97410 60780 36630 13700 59971 53986 8438 45548 25015 3675 24066 167207 12509 10290 8491 2074 20697 20533 5929 5001 11557 2879 53954 24608 12634 8678 3750 2916 2140 2562 10934 10038 7173 4150 3393 2408 5985 19596 4694 3813 2385 2219 4528 2540 3437 1945 15822 1810 3884 1806 2332 1799 6413 4013 146510 1775 21692 22930 14571 2814 1718 11757 3485 2231 11938 4268 7670 2253 3358 2400 1561 13757 9050 1871 7179 1769 29346 5025 20118 15555 14839 5358 5417
is_linear=0
shrinkage=0.18516


Tree=6
num_leaves=90
num_cat=0
split_feature=52 133 107 115 16 21 138 27 22 33 127 109 7 22 98 113 151 18 112 5 22 107 33 112 107 107 138 58 112 11 23 149 94 153 16 33 6 135 5 138 127 16 64 16 124 81 113 18 113 151 18 131 97 0 56 58 83 0 112 6 127 64 97 81 112 107 118 5 135 64 107 112 138 97 113 0 18 18 8 22 131 6 56 149 33 140 22 83 22
split_gain=369.873 80.8296 78.4789 50.2855 82.1964 31.0882 27.6619 24.23 24.0953 23.9254 18.6859 22.9786 18.8708 21.5344 18.268 17.4092 16.9753 17.1337 26.0952 15.9415 15.6361 28.4502 25.9483 31.4837 19.2483 17.7655 15.4832 15.7692 16.0462 15.4432 15.4299 16.4469 18.6664 17.9466 15.0365 15.0176 12.7365 11.2385 22.5037 10.3577 12.9028 15.8619 10.4689 10.1097 9.95427 9.81618 10.0991 13.1615 9.56282 10.6297 15.6064 9.33267 10.1612 9.13518 9.04482 11.0824 11.5916 8.80856 8.75375 8.25082 14.8958 9.66354 9.56019 15.6395 8.76187 7.8711 7.85647 7.63505 13.0816 7.61286 11.1836 9.82046 7.45857 11.1563 9.43789 8.08872 9.81217 7.42445 7.33897 7.23605 7.22605 7.21324 7.19896 14.3991 25.6497 7.16244 7.12424 6.78251 11.0685
threshold=17595.585000000003 8.0000000000000018 115.50000000000001 539.85500000000013 -13306.239999999998 1.0000000180025095e-35 6774.2850000000008 1.0000000180025095e-35 23985.610000000004 10009.130000000003 78.500000000000014 1.0000000180025095e-35 2942.9250000000006 -63.254999999999995 1.0000000180025095e-35 -1627.9999999999998 5.5000000000000009 2731.5200000000004 139352.40000000002 25.500000000000004 -1807.7399999999998 17.500000000000004 27645.740000000002 46802.700000000004 31.500000000000004 3.5000000000000004 14618.585000000001 3519.0050000000006 164689.20000000004 1308.3550000000002 1.5000000000000002 5264.5000000000009 1.0000000180025095e-35 439.87500000000006 -17000.624999999996 10009.130000000003 55.500000000000007 -1688.9999999999998 51.500000000000007 45768.280000000006 3105.5000000000005 -197.94499999999996 352.07500000000005 -20802.374999999996 3520.9900000000002 29325.585000000003 -1109.9999999999998 7567.0300000000016 -409.99999999999994 4.5000000000000009 1398.3700000000001 3196.4250000000006 96.500000000000014 578436591.50000012 4692.0400000000009 10917.525000000001 71847.99500000001 500020926.00000006 139352.40000000002 198.50000000000003 4198.5000000000009 9147.3900000000012 5.5000000000000009 21781.185000000001 190026.00000000003 35.500000000000007 8916.6600000000017 37.500000000000007 -1384.9999999999998 1243.4850000000004 59.500000000000007 164689.20000000004 3166.9900000000002 30.500000000000004 -1004.4999999999999 726905118.50000012 1.0000000180025095e-35 1285.9100000000001 13159.425000000001 -203.53999999999996 146.62500000000003 57.500000000000007 70.440000000000012 5606.5000000000009 46040.685000000005 283.53000000000003 18178.615000000002 21233.055000000004 34978.530000000006
decision_type=2 10 2 8 2 2 10 2 2 2 10 2 2 2 2 10 10 2 10 2 2 2 2 10 2 2 8 2 10 2 2 8 2 10 2 2 2 10 2 8 10 2 2 2 10 2 10 2 10 10 2 10 2 2 2 2 2 2 10 2 10 2 2 2 8 2 8 2 8 2 2 10 8 2 10 2 2 2 2 2 8 2 2 8 2 10 2 2 2
left_child=1 2 3 5 36 -1 14 19 9 10 -7 15 30 -14 20 58 44 18 78 -2 21 25 23 37 -23 -6 27 45 -29 35 31 32 33 85 -17 51 -5 38 -22 40 41 -19 -43 -38 80 46 47 -10 49 72 -51 52 59 -25 55 56 66 -11 -12 60 61 62 -4 -64 -65 86 -54 -32 -69 70 71 -35 75 74 -74 -36 -77 -70 -18 -50 -8 -49 83 87 -85 -13 -9 -21 -89
right_child=7 -3 29 4 6 8 16 65 26 57 11 12 13 -15 -16 34 17 39 -20 82 22 24 -24 53 -26 -27 -28 28 -30 -31 67 -33 -34 69 48 -37 43 -39 -40 -41 -42 42 -44 -45 -46 -47 -48 81 79 50 -52 -53 54 -55 -56 -57 -58 -59 -60 -61 -62 -63 63 64 -66 -67 -68 68 77 -71 -72 -73 73 -75 -76 76 -78 -79 -80 -81 -82 -83 -84 84 -86 -87 -88 88 -90
leaf_value=0.16486247730300274 0.22256622475907822 0.26509823716935843 -0.12590531052772205 -0.21200665886712097 0.011721866576049806 -0.082508539351349983 0.010507797013594614 0.078647115999748399 0.18891334637510346 0.083131655168398419 0.04971791491970233 0.098942146151222501 0.07485430230085241 0.32510969833943248 0.14234805996466696 0.10139509180029403 0.063810540751013181 -0.13775863783371897 0.2867771245863191 -0.14056278309042902 0.079686664472088262 0.20437431357893848 -0.10819696331555147 0.061404821603785589 -0.0089024863724693811 -0.091599162410064744 -0.098230288284579054 -0.027715451844563217 0.28371433504429383 -0.12667148968676889 0.076046264849327999 -0.056854525132882888 0.24584104845748728 0.065112871723767105 0.029772645017064475 -0.14585161571302377 -0.053017945684638842 0.033131323653855758 0.25212477855275145 -0.13923056870498465 -0.10544136608207336 0.07309675028868462 0.35968522837498762 -0.17393267265929765 0.07610860911104457 -0.085507615996882114 -0.043436996171288891 -0.084332405387671353 0.013299660846992229 0.16873767411087601 -0.037788690073355613 -0.14566779430086946 -0.16627458047784327 -0.076353159953067476 -0.074889060526395573 0.28671348125347235 0.2303760560292476 -0.1099693422610622 0.17568417953162457 -0.14308498838607608 0.20381097567283621 -0.13301236961467763 0.18614092616911507 -0.11160385396673736 0.067763557863524462 -0.16385088643734308 0.059752341353936804 -0.085228239284754675 0.13047225342042479 -0.086140400734574907 0.1664383487451935 -0.081958505383098082 -0.032073239193075635 0.027846535947658325 -0.15348592252966856 -0.068864961143746142 0.023491014712397857 -0.014626399947050617 -0.13486989800363758 0.11481118328737416 -0.1069309442076697 0.083219651181164991 -0.14218273431317574 0.24843372637766428 -0.16540308471426463 0.1942025899901062 -0.16319575130263075 0.12883167578161467 -0.1488788955188117
leaf_weight=52.194503115490079 5.8481252882629624 37.565076410304755 17.693886656081304 65.55617359658936 96.885452694958076 43.993427658453584 20.151654283516109 8.861927021294834 19.538005307782441 9.5375227187760157 45.831483358517289 85.614526227116585 27.565403764601797 20.596855506766587 37.594137549865991 55.031086601316929 16.665607268456373 7.3818658522795912 15.912296537775545 43.66982826218009 71.677857166156173 28.441512239165604 34.721732045989484 23.915492829401046 29.612749172607437 138.78208059305325 81.078490771353245 10.376574555411937 12.510872090701012 163.75542871223297 41.537955132778734 25.653306547086686 26.485415176488459 42.069451771210879 129.72382506309077 49.576164790778421 53.917091381270438 45.618098203558475 40.668079028371722 27.201418667333201 20.363367129582912 11.356307801790537 7.10333298286423 42.309956500306726 12.566844745539127 54.970496811904013 58.879277841188014 17.619069361127913 64.571381865534931 26.051078466698527 24.194451393093914 22.386213362915441 8.4088557055220061 53.250222895294428 14.732920737238599 8.1992172361351532 8.3908200699370337 53.694919064524584 32.203637573868036 24.698070874786936 8.9842950915917736 30.057119723060168 15.749620005604809 21.396518768742681 16.565792973502539 643.36696518072858 14.134612828958778 49.952582909725606 21.637729404028505 17.524431503843516 20.709938256535679 24.707443933002651 42.671684860717505 36.005864600185305 45.202276325784624 98.964122679084539 65.570260328706354 27.399776676669717 10.321885780664159 38.387140998151153 165.36473800102249 17.61671318532899 54.206985477358103 12.364072399213912 8.7817349736578745 39.565450498368591 7.8977053919807068 9.8676608270034212 9.8140088478103262
leaf_count=1064 644 397 1522 1236 677 1153 1609 1038 580 779 1098 1519 867 1031 941 676 1003 730 1255 6224 1397 847 2666 1215 1160 1166 10727 942 1119 25999 1153 1006 671 1403 1971 6874 1172 1492 972 3615 2430 1156 812 656 1119 4159 3329 1206 938 894 1554 2905 822 2130 1580 970 798 4205 843 2716 985 2944 1250 1882 1463 144012 1244 1653 514 1020 1210 940 927 1208 1065 1011 1284 1319 1103 1355 11917 1161 8358 1380 1420 939 1460 1227 1444
internal_value=-0.0335261 -0.00488195 -0.0081435 0.00355632 -0.0273968 0.0243018 -0.00589767 -0.145552 0.0195845 0.0302091 0.0359677 0.040402 0.0720614 0.181877 0.0173769 0.0192321 -0.0504026 0.00574656 0.0987094 -0.0768909 0.00904044 -0.0205213 0.0412171 0.0632812 0.0955845 -0.0491228 -0.0304091 -0.00169611 0.14252 -0.0820998 0.0595536 0.0845073 0.0986356 0.0816983 0.00895781 -0.054132 -0.149064 0.110636 0.142107 -0.0485824 0.00478339 0.0916416 0.183377 -0.106183 -0.0833711 -0.0212707 0.00979867 0.0670245 5.43485e-05 -0.0111767 0.0692902 -0.0326223 -0.0192334 -0.0336587 0.0487675 0.0953216 0.0445926 -0.0808434 0.101702 -0.0463374 -0.0247028 -0.0449371 -0.00786326 0.0310224 -0.0333325 -0.160588 -0.0245571 0.00942018 -0.0185373 0.025251 0.0475638 0.0106965 -0.020846 -0.0589595 -0.0945278 -0.00480064 -0.0320592 0.0493982 -0.0121786 0.0511473 -0.0941742 -0.000561979 -0.0895167 -0.0557303 0.0765696 0.129051 -0.0353174 -0.09989 -0.00964509
internal_weight=3951.75 3147.07 3109.51 2684.78 1077.34 1607.44 915.557 804.679 1555.24 1282.65 1219.42 1175.43 471.02 48.1623 601.167 704.408 314.389 116.306 42.8998 144.552 563.573 293.722 269.851 235.13 58.0543 235.668 272.589 191.511 22.8874 424.73 422.858 282.33 256.677 230.191 626.373 260.974 161.783 157.964 112.346 73.4063 46.2049 25.8415 18.4596 96.227 198.083 168.624 113.653 54.7738 571.342 468.384 50.2455 211.398 189.012 77.1657 53.8664 39.1335 30.9343 63.2324 78.0351 135.145 110.447 101.463 71.4058 53.7119 37.9623 660.127 22.5435 140.528 98.9901 105.011 87.4868 66.7769 418.138 123.88 87.874 294.258 164.534 49.0375 26.9875 102.959 185.516 35.2358 138.704 84.4973 21.1458 125.18 16.7596 63.3515 19.6817
internal_count=326527 159320 158923 104969 44476 60493 41412 167207 59429 36206 31222 30069 15245 1898 14663 14824 26749 12104 3361 20697 13722 3850 9872 7206 2007 1843 23223 12496 2061 53954 13347 8708 7702 7031 12883 27955 3064 3861 2369 8743 5128 2698 1968 1828 14645 10435 6276 2947 12207 9914 2448 21081 18176 3345 5414 3834 2864 4984 1941 12762 10046 9061 6117 4595 3345 146510 2066 4639 3486 4573 3553 2343 7466 3200 1992 4266 2295 1833 2106 2293 13526 2367 20053 11695 2800 2458 2498 8895 2671
is_linear=0
shrinkage=0.18516


Tree=7
num_leaves=90
num_cat=0
split_feature=52 56 131 16 27 12 27 108 33 149 149 107 4 11 98 127 94 33 17 107 118 33 22 115 11 18 149 135 22 21 135 107 131 94 72 22 22 10 133 134 134 127 140 120 109 23 8 18 5 147 11 5 127 6 142 134 8 149 140 56 5 81 7 5 72 22 22 7 153 72 127 135 113 120 18 7 0 8 81 107 7 57 118 1 5 107 127 147 0
split_gain=300.94 61.3445 46.4449 51.2309 31.8178 31.2563 23.8967 23.8553 23.4334 20.8503 25.107 20.728 32.0769 19.9114 19.8467 18.2959 17.0357 16.7918 16.6456 16.4655 21.1036 19.804 21.0047 16.3072 16.034 15.3729 19.4265 17.4122 14.0979 14.0156 14.0922 13.863 14.5486 13.9497 14.3806 16.1658 13.7193 13.4157 12.4325 10.9865 18.9188 16.1609 16.4573 14.574 17.4323 13.8798 17.7122 14.2061 10.8879 10.8072 10.7546 10.5699 10.3326 19.7863 10.1459 12.4678 19.8004 9.95584 12.4487 9.43974 9.34382 12.1758 13.647 14.2228 9.22183 16.1481 18.5484 9.04844 9.03281 8.72436 8.68486 8.05355 13.5448 11.0155 7.88539 9.85951 7.78504 7.70739 7.53465 7.49203 7.26893 7.10073 12.2933 7.09353 6.72909 6.71018 6.42322 6.37367 6.26592
threshold=17595.585000000003 6144.2400000000007 29.325000000000003 -13306.239999999998 2.5000000000000004 8.5000000000000018 1.0000000180025095e-35 1.0000000180025095e-35 10009.130000000003 764.50000000000011 1313.5000000000002 14.500000000000002 1.0000000180025095e-35 3513.5650000000001 1.0000000180025095e-35 78.500000000000014 1.0000000180025095e-35 4896.7850000000008 2.5000000000000004 17.500000000000004 563.04500000000007 10469.620000000003 210.37500000000003 -32.529999999999994 2052.7750000000005 1.0000000180025095e-35 3906.5000000000005 -1505.9999999999998 -1807.7399999999998 1.0000000180025095e-35 -2129.9999999999995 16.500000000000004 5260.9050000000016 1.0000000180025095e-35 2433.7600000000007 144.28500000000005 701.74500000000012 -439.24999999999994 8.0000000000000018 129323.25000000001 187210.80000000002 2884.5000000000005 3480.7850000000003 154836.00000000003 1.0000000180025095e-35 1.5000000000000002 12135.720000000003 1639.0600000000002 47.500000000000007 -1088.0649999999998 77.445000000000007 48.500000000000007 3020.5000000000005 96.500000000000014 569988.93000000005 1005410.2850000001 5859.2750000000005 1158.5000000000002 7834.6800000000012 3258.3150000000005 68.500000000000014 8662.0150000000012 307.00500000000005 51.500000000000007 1774.0350000000001 -387.05999999999995 2570.0600000000004 874.29000000000008 1495.5750000000003 760.48500000000013 2961.5000000000005 -1794.4999999999998 -1033.9999999999998 576551.49500000011 2731.5200000000004 -293.89499999999992 500020926.00000006 -198.69999999999996 12903.005000000003 41.500000000000007 7618.420000000001 1.5000000000000002 2954.6700000000005 202103.50000000003 41.500000000000007 25.500000000000004 1275.5000000000002 -29851.194999999996 574123539.00000012
decision_type=2 2 8 2 2 2 2 2 2 8 8 2 2 2 2 10 2 2 2 2 10 2 2 10 2 2 8 10 2 2 8 2 10 2 2 2 2 2 8 10 10 10 8 10 2 2 2 2 2 8 2 2 10 2 10 10 2 10 10 2 2 2 2 2 2 2 2 2 8 2 10 10 10 10 2 2 2 2 2 2 2 2 8 2 2 2 8 8 2
left_child=1 2 5 11 9 7 18 8 13 -5 -11 -4 -13 15 19 -1 23 24 80 28 21 22 -21 83 31 -18 27 -27 48 -25 -31 -6 33 34 57 -36 52 54 -3 45 43 42 -42 -41 -45 64 -47 -48 -12 50 -43 -30 53 -7 60 56 -56 58 -33 74 61 62 68 -64 65 -39 -67 77 -32 85 -66 -44 -73 -74 75 -59 -10 -35 -24 -23 -2 -37 -83 -17 -68 -8 -70 -71 -22
right_child=6 38 3 4 17 36 69 -9 76 10 14 12 -14 -15 -16 16 25 -19 -20 20 88 79 78 29 -26 26 -28 -29 51 30 37 32 -34 67 35 81 -38 39 -40 40 41 49 71 44 -46 46 47 -49 -50 -51 -52 -53 -54 -55 55 -57 -58 59 -60 -61 -62 -63 63 -65 70 66 84 -69 86 87 -72 72 73 -75 -76 -77 -78 -79 -80 -81 -82 82 -84 -85 -86 -87 -88 -89 -90
leaf_value=-0.079598574268069572 -0.10360648311690702 -0.11399675027123946 -0.14843788135296243 -0.10911378080791319 -0.15432362020803425 -0.046011502718054674 0.038088945198313948 0.19048201863809539 0.069152865722828485 0.15038757107243231 -0.010710387485821152 -0.11701572118429965 0.2853591478584393 -0.13889242521875658 0.14315719369278357 -0.00273319562691204 -0.019631323082663639 -0.14236160641898715 0.11829363269444176 0.20570912881495665 0.026850748122139539 0.040353700362760009 0.10759191576304106 0.13438873811925206 -0.15115171559483428 0.10339166845264867 0.024234988103661266 0.30532013257609575 -0.025138569083428101 0.17731601414582804 -0.11824499748888018 -0.031348524218672472 -0.14388153223122563 0.12861968757541112 0.2291321493388275 -0.13229881881279615 -0.097875682730366259 -0.11266636797203336 0.059228999456760058 0.026291824586084506 -0.055463259759674019 0.26419457967204135 -0.027988482401996445 0.091640132863625393 0.25118671848131063 -0.075837605103546382 0.14262657373470075 -0.052667847449439045 -0.096149127241898877 0.03831265105783814 0.088099845306424687 0.09230021681933312 -0.079029260432460266 0.21793110214806347 0.26096397097482227 -0.076276898995954842 -0.063186617988521321 0.11790074745108424 0.24449698531585534 0.10043179691135297 -0.16099052445856546 -0.064666076032641268 0.031080086737272777 0.27699951341322515 0.092601300467333073 0.13641312498778474 0.041108935526794739 0.19138276243380628 0.11697747186974837 -0.16660972216170067 0.00074507713697012862 0.13211722226891548 -0.039543951247038758 0.096767459380624921 -0.10305320168750677 -0.060249665268575656 -0.12266498571744566 -0.08326267080776989 -0.029357399969804198 -0.14954150728891544 0.084409828479577745 -0.11342511329883066 0.20605583845197359 -0.13880043893282509 -0.12007087182532022 -0.16274612951575124 -0.049266641644385614 0.0434758230476242 -0.12355840315131482
leaf_weight=47.722422897815704 113.18398403609172 195.71369197551394 143.4750781522016 42.365289274835959 24.888244209811091 22.019761009141803 5.7648654989898196 30.865250305039808 8.5995376450009626 50.342030331259593 110.23767725820653 19.903637212933976 10.311263222363776 23.426978525705636 37.569129824638367 26.509130360092968 26.353683852590621 58.213447473477572 14.465359161607919 51.46618627011776 15.056200714781879 14.469830827321859 28.426740541122854 46.94816965283826 36.564426101278514 29.300837774761021 31.646489735227078 29.260716089978814 53.058475475292653 22.231199752539396 21.641643501352519 14.911099647637458 25.537974680773914 11.616409093141558 15.810227824142201 9.8236729456111807 100.94700790755451 31.842886209022254 15.3160927783465 45.164479166734964 86.798378188163042 20.080885866656899 43.012373508419842 60.848509850911796 38.229647636879236 97.186356488615274 29.484095181338489 22.526366773527116 95.380133180646226 51.009305483195931 29.151949350722134 52.050747237168252 26.34325267164968 17.456917115487158 17.695136430673305 13.121251201722769 10.175905289594082 14.356199428439139 8.9911579024046642 12.221890144981442 16.758843035437167 88.849767793901265 21.428304565604776 12.92700248537585 125.76404404547065 37.472428466193378 15.783581115305422 19.675014172215015 16.505061069037769 8.1158402310684306 49.053064285311848 58.205045938957483 49.918274079449475 34.284710508305579 89.442745997803286 41.262621524510905 46.360239504254423 11.931284626014529 26.719147130846977 14.02909792284481 7.5179870645515612 7.3550606444478035 9.4150486746802944 26.03729605814442 20.303868021816015 536.57108515291475 15.405152703169732 12.696008641738446 25.711916309315711
leaf_count=1551 18090 24997 1464 1259 337 1187 869 1227 744 1216 935 2180 826 3173 846 984 354 8807 1338 1111 834 964 817 764 6524 875 1278 943 1355 708 821 1131 3205 742 1052 1063 10352 596 598 1220 1967 345 1026 1147 1167 1919 549 1284 735 871 1606 1373 1345 921 1065 1022 1043 924 882 1430 1332 8026 1189 826 2197 886 767 1342 825 1438 1295 1285 1096 764 10091 2476 4171 790 1021 959 1269 831 1214 951 1164 142454 878 1749 1283
internal_value=-0.0293244 -0.00498914 0.00192054 -0.0260694 -0.0103674 0.0212361 -0.139316 0.0293029 0.026083 0.016243 0.0254869 -0.119084 0.0203004 0.0304624 0.0134914 0.0331675 0.0369602 -0.0502092 -0.0694017 0.00348033 0.0487521 0.0839837 0.120635 0.0308906 -0.0350468 0.104777 0.141122 0.204287 -0.0221446 0.0351389 0.0312652 -0.0216647 -0.0103713 0.00240768 -0.016207 0.0808591 -0.0549923 0.028515 -0.101424 0.0383416 0.0565311 0.0344827 0.0110778 0.113464 0.153202 0.0164547 -0.0291667 0.0580422 -0.0503429 0.0980411 0.159925 0.0330179 0.0107772 0.0707061 -0.0111301 0.0725493 0.142614 -0.038924 0.0724145 -0.0558441 -0.0288559 -0.0163278 0.0325288 0.123613 0.0407448 -0.00251367 0.0451697 0.0987011 -0.0259049 -0.156097 0.0668268 0.0422268 0.0634344 0.0159576 -0.0690108 -0.0142659 -0.0926513 0.0212619 0.0412376 -0.0531255 -0.0918958 -0.00729054 0.0659374 -0.0701559 -0.0495756 -0.160611 0.0367205 -0.0384497 -0.0680103
internal_weight=3854.59 3156.28 2945.25 1202.59 1028.9 1742.66 698.315 1575.89 1545.03 616.883 574.517 173.69 30.2149 1490.07 524.175 1466.64 1418.92 412.017 135.167 486.606 175.879 135.111 106.612 1302.35 353.803 116.562 90.208 58.5616 310.727 1249.81 1202.86 317.239 292.35 266.812 223.59 42.404 166.767 1180.63 211.03 946.12 516.704 372.461 272.219 144.243 99.0782 429.417 149.197 52.0105 205.618 100.242 49.2328 105.109 65.8199 39.4767 234.508 40.9923 27.871 181.186 23.9023 157.283 193.516 176.757 87.9072 34.3553 280.22 105.403 73.5599 43.2227 53.5519 563.148 174.817 185.42 142.408 84.203 145.062 55.6188 54.9598 23.5477 55.1459 28.4989 120.702 26.5938 16.7701 52.5464 36.0874 542.336 31.9102 20.8118 40.7681
internal_count=326527 159320 133725 62019 57549 71706 167207 57901 56674 14708 13449 4470 3006 51759 12233 48586 47035 42841 20697 11387 6989 4872 2949 43585 34034 3450 3096 1818 4398 41650 40886 27510 27173 23968 21094 4160 13805 40178 25595 23151 12494 8960 6138 3534 2314 10657 3752 1833 1670 2822 1951 2728 3453 2108 17027 3130 2108 16934 2013 14921 13897 12565 4539 2015 6905 3413 2817 2874 2524 146510 3492 4171 3145 1860 13491 3400 4915 1532 1838 1923 19359 3108 2045 1935 1931 143323 1703 3187 2117
is_linear=0
shrinkage=0.18516


Tree=8
num_leaves=90
num_cat=0
split_feature=52 111 153 50 99 4 107 27 64 35 94 125 112 22 136 8 108 127 72 98 39 64 112 0 149 115 149 16 109 6 22 127 149 16 149 25 24 6 0 0 123 24 112 22 33 27 25 11 135 8 107 147 72 11 0 8 24 107 7 8 127 33 133 9 7 115 8 104 107 135 113 134 25 6 6 140 0 22 22 22 8 0 135 28 22 73 8 56 16
split_gain=241.622 53.8398 54.7672 28.6629 26.5877 29.3861 23.8986 23.5085 21.7464 18.5397 18.6659 18.6996 18.5544 18.1998 22.4861 17.2119 15.2883 15.9745 18.6253 14.7837 13.9342 13.7555 13.371 13.1475 12.5156 14.8939 13.2562 12.6635 15.7328 12.2504 12.0273 11.1957 12.6069 11.1247 10.8455 10.6978 10.4334 10.2678 12.9182 12.781 16.1461 12.3505 9.87277 9.28442 9.27111 9.12629 9.03537 8.98666 8.90681 8.62926 8.58702 21.1893 8.48086 8.43922 8.30826 10.8871 9.66047 8.37644 8.30148 10.695 8.21621 8.17246 8.25947 8.11709 11.2133 7.99247 10.3195 7.97813 7.84645 8.67379 11.7796 8.9162 7.58149 9.62365 7.57689 7.65299 7.36804 7.29767 7.07396 8.26816 10.7201 7.04801 6.75105 6.70828 12.6273 6.58845 10.4839 6.53564 6.86236
threshold=17595.585000000003 8.0000000000000018 2762.4150000000004 1.0000000180025095e-35 2.5000000000000004 1.0000000180025095e-35 17.500000000000004 1.0000000180025095e-35 4830.8450000000012 7752.5250000000005 1.0000000180025095e-35 -2885.3949999999995 521835.72500000003 7980.7900000000009 20.500000000000004 35389.740000000005 1.0000000180025095e-35 1021.5000000000001 2433.7600000000007 1.0000000180025095e-35 93901.005000000019 2580.6050000000005 93746.160000000018 465178673.50000006 388.50000000000006 -16.814999999999994 289.50000000000006 -15350.724999999999 1.0000000180025095e-35 36.500000000000007 -14384.464999999998 769.50000000000011 4220.5000000000009 -13306.239999999998 5890.5000000000009 15097.690000000002 16.500000000000004 56.500000000000007 601886945.00000012 321841878.00000006 1.5000000000000002 1.0000000180025095e-35 190026.00000000003 77562.37000000001 9564.1100000000024 1.5000000000000002 22588.615000000002 223.94500000000002 -2008.4999999999998 251.82500000000002 17.500000000000004 -6173.7899999999991 760.48500000000013 44.535000000000004 870467004.50000012 3353.6850000000004 8.5000000000000018 47.500000000000007 1736.9850000000004 11338.750000000002 1500.5000000000002 46040.685000000005 8.0000000000000018 17.815000000000001 1627.2550000000003 10308.680000000002 -24898.479999999996 39354.150000000009 47.500000000000007 -1217.4999999999998 -409.99999999999994 129323.25000000001 3446.2450000000003 129.50000000000003 146.50000000000003 7244.670000000001 766019001.50000012 -11664.619999999997 -2109.9799999999996 -5427.6599999999989 4434.0500000000002 984539152.00000012 -2159.4999999999995 36615.080000000009 -4095.5649999999996 2.5000000000000004 743.90500000000009 8154.7750000000005 -31.704999999999995
decision_type=2 10 10 2 2 2 2 2 2 2 2 8 8 2 10 2 2 8 2 2 2 2 8 2 10 8 10 2 2 2 2 10 8 2 10 2 2 2 2 2 10 2 8 2 2 2 2 2 10 2 2 10 2 2 2 2 2 2 2 2 10 2 8 2 2 10 2 2 2 10 10 10 2 2 2 8 2 2 2 2 2 2 10 2 2 2 2 2 2
left_child=1 2 3 4 5 8 33 19 9 10 11 34 31 14 16 23 17 18 83 47 21 24 -10 -5 26 -26 63 -27 48 -24 -17 -12 -33 -7 49 37 -37 41 39 -39 -41 42 -30 54 50 -23 65 61 -29 -1 -19 78 85 -8 55 -31 57 -57 -51 -60 -50 62 67 82 -65 66 -15 -2 69 76 71 -71 73 81 -22 -76 -62 -66 79 -52 -81 -40 -13 84 -4 86 -9 88 -68
right_child=7 -3 13 15 -6 6 53 52 22 -11 12 20 -14 46 -16 30 -18 44 -20 -21 74 45 29 -25 25 27 -28 28 35 43 -32 32 -34 -35 -36 36 -38 38 72 40 -42 -43 -44 -45 -46 -47 -48 -49 60 58 51 -53 -54 -55 -56 56 -58 -59 59 -61 68 -63 -64 64 77 -67 87 -69 -70 70 -72 -73 -74 -75 75 -77 -78 -79 -80 80 -82 -83 -84 -85 -86 -87 -88 -89 -90
leaf_value=0.026286197515257674 -0.10151637186316186 0.22014288974707827 -0.088783475260892697 0.12254227125056323 0.17823641664280671 -0.128326170867924 -0.0028694504206184675 0.15479811361913831 -0.11058653359050115 -0.14173010901534286 -0.034610568621513932 0.018147594566709835 0.19558022501892591 0.13863760676283288 -0.2052665890415831 -0.37448290490897507 0.12958864580508295 -0.12439749047394509 0.19575437799918349 0.13214147360341341 -0.13888325380811894 0.23738638320874203 0.16019635541326044 -0.082252368346941648 -0.085329099534083588 0.12855547981516197 -0.10934807297944057 0.10321258422601788 0.20747704431539704 0.20230068465503667 -0.13049247718115001 0.14300347113931641 -0.0046351383161303619 -0.043819928036671049 0.11894720973514464 -0.098774104838299959 0.10791480148864774 -0.016516094634180307 0.093878743791133812 0.28999675688753535 0.078734647885996184 0.015959884059575966 0.080133086063036235 -0.095290656459511625 -0.14363846950036055 0.053091408255602379 -0.15480361184745636 -0.13127006870544233 -0.015197664920084083 -0.16217934525407474 -0.060635825721034674 0.21871173154744436 -0.033420846304573912 0.15429421749130678 -0.085235791588915519 0.081399450352799746 0.14539197610077079 -0.088736308217675114 0.091560698894161158 -0.10528709818119039 0.036330911071551092 -0.15708227736610253 0.13300683099142915 -0.072020071914707995 -0.035599274747185772 -0.13984851640893817 -0.11181325157639918 0.12528904423726422 -0.059570759980634248 -0.092625681749231706 0.099263262608729752 0.019661236986142309 0.11564260196669815 -0.057601453888267921 -0.11841735059344032 0.090152864903940269 0.14503906685561865 0.041093962443054369 -0.07244745245916738 0.19592303288876325 -0.017650653853700009 -0.0063620790280779303 0.11597088368284046 -0.089319443572790397 0.10125811962530337 -0.1601333393799855 -0.16454493536615653 -0.16665228786338832 -0.015634942550368292
leaf_weight=23.832049830118194 21.042378206271682 35.981879489729181 19.074095793766901 15.63961432664655 31.291244943626225 84.470183240482584 25.308757003280334 5.9737860101740798 66.24597082240507 23.861502923711669 38.715936789056286 85.83942458772799 38.168291165144183 9.0888802721165103 23.715374465449713 8.4336495746974816 22.238789886818267 34.073060355614871 19.695585925364867 12.22605572035536 27.448326911777258 16.853693886660039 13.090015924768521 34.356203122064471 35.100617106538266 49.644703462370671 37.688321033259854 35.368688072310761 48.469909715466201 11.621499267872421 38.760004604002461 51.208969885716215 32.358930558897555 145.23415202670731 11.258875675732268 25.931218757526949 12.365951827028764 18.25488578248769 45.629481347743422 20.756697834935039 30.816295214230195 30.890517546096817 36.658944385824725 46.085992512758821 34.197452272463124 20.317636556224898 64.214522452792153 60.249147560214624 274.59739713743329 39.190097774146125 31.720063306915108 11.626744610548483 20.145204796688631 21.806102589587681 25.261338173528202 14.593480814713983 13.242614783346651 30.987352017080411 13.595342281972988 31.129330714931712 44.362108865985647 12.730377600295467 13.26488660648465 76.684846207266673 67.945522005902603 47.748720921226777 38.671827143756673 7.115216110367327 29.587304901797324 35.65011252136901 41.540200108196586 75.780820067971945 25.506892431643791 52.27091977535747 10.412330096820368 14.335181536851453 41.253636454232037 113.746366355801 94.742322069709189 13.84560771496035 19.273579972796142 50.842187273083255 33.675629622768611 23.204160932102241 32.260647603776306 447.91760461381637 8.596406710566951 18.730510613648221 74.299290867289528
leaf_count=1436 3004 370 1170 1070 645 1154 889 1464 5700 633 1063 1838 997 1203 626 118 1270 399 1081 1300 1689 486 948 1864 1088 812 1105 804 1089 618 4203 1534 1210 1750 1020 1866 1024 808 1310 841 1253 1299 874 6217 5455 1478 11902 11136 6076 2798 3025 634 3187 1286 1573 451 1084 2412 441 2642 1226 2694 1384 2253 497 8860 4658 1179 2173 979 936 1547 1326 1656 846 1028 839 1920 7887 804 1552 1375 944 1768 1587 139560 2299 3529 10499
internal_value=-0.0256179 -0.00505941 -0.00764962 0.00468225 0.00867618 0.0064351 -0.0502565 -0.132395 0.0139414 0.020436 0.0225325 0.0167869 0.0828786 -0.0563198 -0.0306913 -0.093894 -0.0190601 -0.0289662 0.0356144 -0.0613878 0.0221633 0.025406 -0.0409675 -0.0181888 0.0226061 0.0332724 -0.00463291 0.0373292 0.0326915 -0.0111902 -0.174094 0.0477012 0.0858353 -0.0748958 -0.0539712 0.0610032 -0.0320354 0.0708981 0.0493416 0.116632 0.163762 0.116248 0.152639 -0.0270123 -0.0543785 0.136652 -0.0948169 -0.0820702 0.013182 -0.0720401 -0.0395088 -0.0226147 -0.151025 0.0698704 0.00586623 0.0385351 0.00618067 -0.0342644 -0.099965 -0.0454496 0.00731536 -0.0273316 0.0125447 0.00581066 -0.0126458 -0.0743861 -0.0521847 -0.0442043 0.0303676 0.0415209 0.015109 -0.0162627 0.0223758 0.00638214 -0.0718976 0.00239851 0.0887115 0.0124137 -0.0401972 0.00692651 0.0716347 0.0410501 0.0457112 -0.00669979 0.0306457 -0.156147 -0.0336141 -0.0653536 -0.0485583
internal_weight=3773.64 3164.38 3128.4 2495.97 2398.78 2367.49 276.819 609.261 2090.67 1869.55 1845.68 1685.23 160.452 632.421 379.667 97.1895 355.952 333.713 94.2345 126.628 1566.23 1514.03 221.128 49.9958 1476.86 1061.28 415.58 1026.18 976.534 154.882 47.1937 122.284 83.5679 229.704 119.006 398.394 38.2972 360.097 244.077 69.8279 51.573 116.019 85.1289 141.792 239.479 37.1713 252.754 114.402 578.14 107.747 205.281 171.208 482.633 47.1149 95.7063 70.4449 58.8234 45.5808 83.9148 44.7247 542.772 54.1529 41.4225 377.892 258.377 188.539 140.791 28.1576 268.174 238.587 152.971 111.431 174.249 148.743 52.1958 24.7475 85.6157 181.692 159.582 64.8393 33.1192 96.4717 119.515 74.5389 51.3347 462.488 14.5702 131.702 112.971
internal_count=326527 159320 158950 91041 83786 83141 5079 167207 78062 59059 58426 53622 4804 67909 27258 7255 26632 25362 5606 20697 45285 41722 19003 2934 39758 31201 8557 30113 29301 13303 4321 3807 2744 2904 8337 14721 2890 11831 8569 2902 2094 3262 1963 12355 19756 1964 40651 19397 14580 7317 14301 13902 146510 2175 6138 4565 3947 2863 5881 3083 13776 8261 5567 7452 4670 28749 19889 4183 7700 5527 3462 2526 5667 4341 3563 1874 2065 2417 13268 5381 2356 2685 2782 4525 2757 143323 3763 18686 15157
is_linear=0
shrinkage=0.18516


Tree=9
num_leaves=90
num_cat=0
split_feature=52 81 4 111 137 102 35 71 107 5 22 16 33 56 99 112 8 80 5 107 140 72 142 17 84 149 107 22 125 81 52 137 12 22 153 58 10 127 112 97 135 11 97 52 115 147 153 31 22 33 28 140 113 147 107 135 6 107 6 28 0 149 23 8 97 58 137 6 11 72 153 80 20 16 153 8 72 0 97 7 6 82 135 149 123 72 56 1 74
split_gain=193.841 40.6984 33.2939 32.3992 21.3424 25.2883 22.1007 23.0774 21.105 21.8794 17.3996 16.5967 22.0014 18.8728 17.4079 16.4662 18.9013 18.4047 20.2857 16.3187 15.4358 14.9623 19.3492 14.9533 16.2139 14.8568 14.5502 14.2425 14.2271 19.6885 13.04 20.7651 13.377 12.8463 11.8007 17.4035 16.0123 14.4593 13.1392 13.4246 11.5191 11.2018 10.8312 10.8227 10.5212 10.5157 10.5129 10.3805 10.369 10.2211 10.2035 10.1593 13.4099 10.5488 9.71324 9.61345 15.8327 9.66798 9.51697 9.44812 9.63142 9.15123 15.6252 8.45663 8.41973 10.4019 10.2973 8.39119 8.13111 8.10641 8.09284 7.98662 8.99534 7.80785 7.97749 9.44847 13.3405 9.75397 9.70382 12.4797 7.7434 7.47305 7.3653 7.33143 7.31833 7.25048 7.23646 7.01685 8.75416
threshold=31092.475000000002 57332.090000000004 1.5000000000000002 8.0000000000000018 50029.715000000004 1.5000000000000002 34269.875000000007 1.5000000000000002 49.500000000000007 28.500000000000004 124804.17000000001 -913.52999999999986 24669.970000000005 4542.2100000000009 1.0000000180025095e-35 139352.40000000002 -3247.7749999999992 1.5000000000000002 32.500000000000007 15.500000000000002 2217.6350000000007 1774.0350000000001 365976.00000000006 3.5000000000000004 1.5000000000000002 637.50000000000011 2.5000000000000004 -2612.4599999999996 -5417.0749999999989 31569.530000000002 683141.94500000018 38295.260000000009 4.5000000000000009 -801.54999999999984 580.6350000000001 1331.7650000000001 22.865000000000006 361.50000000000006 190026.00000000003 1.5000000000000002 -1962.9999999999998 72.635000000000005 27.500000000000004 136992.96500000003 14573.100000000002 -17082.064999999995 10903.035000000002 1286.9450000000004 3111.5600000000004 8073.5800000000008 17984.000000000004 10694.680000000002 -227.99999999999997 -7725.8949999999995 27.500000000000004 -1627.9999999999998 74.500000000000014 52.500000000000007 112.50000000000001 19637.335000000003 343220193.00000006 4880.5000000000009 1.5000000000000002 7631.6000000000013 3.5000000000000004 310.90000000000003 680.08000000000004 117.50000000000001 356.40500000000003 2433.7600000000007 35336.625000000007 2.5000000000000004 1.0000000180025095e-35 1368.4900000000002 15102.375000000002 -665.66499999999985 1774.0350000000001 879343794.00000012 102.50000000000001 2365.4150000000004 46.500000000000007 4.5000000000000009 -896.99999999999989 2831.5000000000005 8.0000000000000018 559.46000000000015 117.07000000000001 202103.50000000003 1592.2050000000002
decision_type=2 2 2 10 10 2 2 2 2 2 2 2 2 2 2 8 2 2 2 2 8 2 8 2 2 10 2 2 10 2 2 8 2 2 10 2 2 8 8 2 10 2 2 2 10 8 10 2 2 2 2 10 8 10 2 10 2 2 2 2 2 10 2 2 2 2 10 2 2 2 10 2 2 2 10 2 2 2 2 2 2 2 10 10 10 2 2 2 2
left_child=1 2 3 4 5 6 7 11 9 -2 23 14 13 15 21 17 20 18 -13 -4 -17 26 25 44 -25 -23 -1 46 29 71 32 -32 -10 67 35 36 38 -36 -18 63 -41 -37 -43 -11 49 -31 -6 55 61 73 -22 53 59 -39 -35 80 -57 -58 -52 -53 -61 62 64 -40 66 -66 -27 -28 -59 -14 -48 -19 -73 74 75 76 77 -3 84 81 -20 -80 -42 -15 86 -34 -77 -24 -89
right_child=8 10 19 -5 27 -7 -8 -9 30 43 -12 12 69 83 -16 16 34 28 47 -21 50 22 87 24 -26 48 33 -29 -30 45 31 -33 85 54 37 41 -38 51 39 40 82 42 -44 -45 -46 -47 70 -49 -50 -51 58 52 -54 -55 -56 56 57 68 -60 60 -62 -63 -64 -65 65 -67 -68 -69 -70 -71 -72 72 -74 -75 -76 78 -78 -79 79 -81 -82 -83 -84 -85 -86 -87 -88 88 -90
leaf_value=0.031010951204451537 0.33704941581838666 -0.10247133817000746 -0.1731005559204829 0.18831441888382094 0.14648065597904533 0.20037695510259426 -0.17247066156765334 0.15010802216297137 0.1123192021215452 -0.089568233697671362 -0.12107044420529307 0.096127378161703483 -0.10755572587093179 -0.0057946008946264714 0.10156243260219903 0.0089812829044902103 0.1010733779954182 0.089277231578010027 -0.0075880783998025 0.0020502909938457572 0.28419066875510951 -0.045665912588400137 -0.070236316224779827 0.26168745565542645 -0.089138928703381942 0.052185198140129729 -0.13279190898708229 -0.11827815709778207 -0.06803087130345746 0.11321557254300758 0.592033427884605 -0.13477624497921331 -0.15360229635718406 0.1140767837412487 -0.1425185860654084 0.26207047797248223 0.12145277702122016 -0.071014993059215353 0.0049636756460709943 0.1256211807108899 -0.02172671451977316 0.01409471702835906 0.2008010977131387 0.17058700318710082 -0.12390219833490511 -0.10687293783713128 -0.13103315056404588 -0.12198695184781229 -0.063414740589821439 -0.13240650431701581 0.22871977334502105 0.17151051305832721 0.25477492194333567 0.060442452214736313 -0.053020189222501839 0.10687705377965499 -0.052399965449512864 0.19783099724228845 0.0066625247855856941 0.16151107577052426 -0.071884625498442448 -0.024744307168480934 0.14064482137551929 -0.08134366342023519 0.15914606949752241 0.0021632808015300611 -0.057573425006098071 -0.04428368895167549 -0.026248437316103192 0.081515812264429166 0.080954927661650092 0.11894089613588736 0.31053275473159342 -0.16112396462009226 -0.12696151267270425 -0.020248100160278799 0.24930916043157736 0.15403414512933644 -0.11883180054968699 0.23797487596496919 -0.10478131988135703 0.11681025081550367 0.084005343888249234 -0.11342050315273906 0.074192777496689469 -0.020442713197201201 -0.1122930553633672 0.048388117507888066 -0.044316446224852077
